4575 64
u4sTiCzVeIHZY8OlaL346Q 0.024292452 -0.055404466 -0.17285964 0.34938967 0.18949829 -0.18535315 0.17729782 -0.06423209 -0.29791114 -0.07668443 0.37309504 -0.17187524 -0.10189747 0.2790223 -0.12827079 0.4645606 -0.36959028 0.21064039 -0.32263795 0.25289163 0.104131855 0.05437748 -0.11443562 0.001215883 0.15907435 0.039655715 -0.36329904 0.0882809 -0.17347628 -0.13434313 -0.42747575 0.24810907 -0.25850487 -0.19960305 0.15345052 0.034964785 0.073021725 0.08899433 -0.20432115 0.20503895 -0.08516471 0.31555903 -0.3918525 -0.33774173 0.50833 0.24523011 0.0917949 0.25312346 0.08719519 0.059671845 0.015698953 0.15142943 -0.044027224 -0.19442657 0.030529378 -0.12908213 0.06832719 -0.13108546 0.047047604 0.14209053 -0.15705927 0.19027269 0.10936572 -0.2144716
gldPX9ANF5Nic0N7igu2og 0.010423684 -0.008190921 -0.0023377866 0.18490385 0.115218766 0.055010617 -0.24164309 0.13533798 -0.4143752 -0.2885638 0.1287605 -0.36840695 -0.16669728 0.087802015 0.4314066 -0.25467938 0.0868643 -0.029583579 -0.049800966 0.15813807 0.20817454 0.32741144 0.12815632 -0.18325657 0.010986208 0.06962704 0.09323675 0.00031027602 -0.20641972 0.02148368 -0.06473417 -0.09098242 -0.33270633 -0.39720517 0.12799482 0.598941 -0.28525588 0.17431448 -0.039300952 0.15600787 0.23704028 -0.43704364 -0.12851155 0.02881083 0.20602493 -0.24516286 -0.041685544 0.0063189897 -0.20159832 -0.036628194 -0.1179637 0.3571889 0.39597982 0.05674626 -0.015776709 -0.09084862 0.19758141 -0.50058323 0.19052722 -0.0073533515 0.040883552 0.17556965 -0.22867659 -0.077204116
woXlprCuowrLJswWere3TQ -0.07748318 -0.07171227 -0.09953537 0.36838502 0.27187115 -0.27596244 0.08879634 -0.2918416 -0.110830575 -0.176455 0.58208966 0.07874791 -0.001410283 0.07252709 -0.118552476 0.16952595 -0.18837428 0.115874045 -0.16133724 0.1641454 0.16873594 0.121825896 -0.07430887 -0.26378593 0.20685776 -0.013868344 -0.201158 0.41028443 0.025829894 -0.2742822 -0.36496052 0.0071706087 -0.2593421 -0.44247976 0.08388531 -0.24769059 -0.18269338 0.11424373 -0.14376043 0.25281978 -0.09819901 0.26252845 -0.28075883 -0.20436811 0.5684047 0.17152521 0.07419158 -0.012763197 -0.08558796 0.05688706 -0.06080509 0.058792133 0.20553933 -0.17985378 0.32830736 0.01745099 -0.10153554 -0.038343716 0.060719416 -0.013205967 -0.0702861 -0.082586676 0.049959894 -0.22785336
dLc1d1zwd1Teu2QED5TmlA 0.57178193 -0.17779952 0.032886986 0.045043893 0.23848957 0.02919981 -0.3097988 -0.18516551 -0.37443992 -0.006790909 -0.21714483 -0.023074722 -0.04047164 0.18358463 0.3601817 0.005296781 0.045750465 -0.18882434 -0.31981218 0.07294619 0.17323364 0.35691804 0.10846632 -0.53154063 0.20406413 0.18225053 -0.08134162 -0.16383727 -0.31660596 -0.09380383 -0.1003745 0.037875462 0.34364262 -0.43032253 -0.0032153446 0.0053180493 -0.06780093 0.23498285 -0.029693889 0.18065213 0.017785296 -0.13488731 -0.21705662 -0.2892044 -0.024777811 -0.18093786 0.035623997 -0.15132184 -0.114496775 0.040992387 -0.2967076 0.36725646 0.16419013 0.36918768 -0.116409354 0.030888611 0.05133465 -0.24452057 0.010096095 -0.0018451655 -0.39987633 0.09680401 -0.18978906 -0.35540035
Voeq7aGDmCGMjE_SQiHwRA 0.034746494 -0.13619354 -0.20766973 -0.10186857 -0.20946367 -0.24622665 0.081902914 -0.053636845 -0.1687488 0.09412787 0.2662097 -0.13839081 -0.32666224 -0.229951 -0.050078776 0.119134285 -0.13743289 0.017487114 -0.36223033 0.3396186 0.2721648 0.3564194 -0.06422436 -0.09110366 -0.16867204 0.22050558 -0.26000184 0.21450867 0.051660627 -0.3455191 -0.30467004 -0.1816984 -0.17007717 -0.6355763 -0.24232027 0.20646942 0.21941127 0.22995883 -0.14015196 0.2005551 0.035830382 0.01628929 0.04206872 -0.078554 0.5064114 -0.18346357 -0.2116769 0.12887435 0.12552965 -0.5483885 -0.1694005 0.12963502 -0.021300675 0.17764306 -0.05308033 -0.041103378 0.18287966 0.25675935 0.1299182 0.22134504 0.08986425 0.15448141 -0.12713994 0.03816488
MKYcOZSpMwJK7uwacK13EA 0.04564735 -0.12672836 0.297603 0.2327557 0.031322204 0.038529895 0.16144879 -0.10635555 -0.26874673 -0.008455167 0.1561907 -0.24255821 -0.43755615 -0.07253683 -0.008031642 0.10472215 0.099858 -0.36344427 0.10662122 0.5987802 0.2926239 0.03257795 0.15817766 -0.48284343 -0.1534613 0.30307794 -0.09219144 0.22929585 -0.2032529 -0.05526529 -0.1555924 0.15138635 -0.15973333 -0.70487356 -0.020746816 0.1989049 0.21164234 0.24269508 0.12597655 -0.15243447 0.15434957 0.24330345 0.019821333 -0.25420058 0.16830005 0.068150446 0.0041711973 -0.059046593 0.062473994 -0.15009832 0.014211113 0.05847194 -0.24294251 0.124315836 -0.23243898 -0.16163896 -0.036368728 0.03785423 0.17778616 0.10807724 -0.10317678 -0.00075361645 -0.15540728 0.00011227424
JLbgvGM4FXh9zNP4O5ZWjQ 0.0050136964 -0.18445687 0.14294259 0.29746744 0.03923029 -0.32212994 0.09672118 -0.028988294 -0.4545788 0.13834105 0.45225438 -0.10673123 -0.2715204 0.054036837 -0.11783521 0.10073701 -0.23982114 0.12960842 -0.44057778 0.32554385 0.12536938 0.2826515 -0.29824278 -0.30465537 -0.17432661 0.18776205 -0.22145568 0.25882792 0.021191718 -0.43180618 -0.22326864 0.032107677 -0.3895675 -0.28999424 0.09675923 0.024767095 0.1905012 -0.08611537 -0.31364265 0.24080446 0.020604253 -0.05481852 -0.07506342 0.09930036 0.0041397978 0.15160125 0.06237749 0.1363161 0.18976259 0.04394199 -0.05416411 -0.0056234165 0.1372079 -0.045012597 0.29114857 0.25778267 -0.010110222 -0.17169207 0.056788553 0.13065088 -0.02898447 -0.2524368 0.049641844 -0.0044862344
BcLFIr4wtd3GQ3fnz15yDQ 0.15473318 -0.22254853 0.085595906 -0.08987195 0.17197515 -0.00575663 -0.19506907 -0.13826934 -0.26979986 -0.06626173 0.1777659 -0.26208773 -0.10356369 -0.3383192 0.257939 0.27994183 0.038955472 0.3356153 -0.19754618 0.6973596 -0.13415687 0.016192403 -0.05390815 -0.3949651 -0.088199854 0.39494175 -0.12958534 0.25195712 -0.23426296 -0.0070153945 0.0923637 0.011578413 -0.27350247 -0.49957272 -0.061672404 0.3005296 -0.060027454 0.17971459 0.10683907 0.10696809 -0.25068262 -0.08275105 0.070796475 -0.2669569 0.11329545 0.11141246 0.15888225 -0.17503215 0.15703003 0.1456363 -0.18514188 -0.10019755 -0.1811891 0.34264594 -0.045450803 -0.3522633 0.039003696 0.05051194 0.14327909 0.111696154 0.13421996 0.16574557 -0.2864328 0.0055650133
hHgSUnDB9yIrxUEMSmsdoQ -0.31740597 -0.010055462 0.13459398 -0.31926602 0.060483467 0.14123364 0.49653038 0.14958656 -0.34733048 -0.19778599 0.30389273 0.04768563 -0.41012645 -0.17400381 -0.04335134 0.40640277 -0.3066449 0.297185 -0.30085096 -0.0524809 0.12639242 0.10013156 -0.25709367 -0.4712809 0.14221644 0.366136 -0.37033305 0.048667036 0.1438953 -0.23468734 -0.2803416 0.13244964 -0.19825876 -0.18755609 0.044380806 0.12080236 -0.15549563 -0.07749185 0.03227438 0.2087263 -0.10898146 0.21039288 -0.5105328 0.017725373 0.066590935 -0.049576983 0.11911601 0.03134272 0.2316053 -0.11139013 -0.20028462 0.62917936 0.39447606 -0.05354636 0.18946655 0.018877858 0.0026550253 -0.28981322 -0.017365625 -0.0067752735 0.08220691 -0.11613014 -0.5212016 -0.06708298
4mYS-4UOjTKgsf0tX1_IkQ -0.112713836 -0.17393973 -0.10059126 -0.002721536 0.2826231 0.21785226 0.40842053 -0.28756756 -0.05103346 -0.08592497 0.10042385 -0.009548571 -0.25537178 -0.07756721 0.096070096 0.26355636 -0.48375425 0.3057134 0.14562576 0.25321364 0.084381595 -0.12711813 -0.3982311 -0.4989751 0.13237853 0.20236273 -0.4447714 0.0072200885 -0.14969994 -0.41874582 -0.025427805 0.08687824 -0.23679508 -0.011295904 0.2325491 0.275149 0.075194165 -0.16925012 -0.013840342 -0.15517388 0.48399448 0.11501153 -0.041810386 -0.32917035 0.5134653 0.11840241 0.10357284 0.30783212 0.007704603 0.052185267 -0.17614073 0.33199173 0.14212124 0.2647736 0.17793246 0.4055823 0.1420732 -0.12679295 0.013269477 0.46992418 0.017114026 -0.29899356 -0.26634485 -0.29570532
Z2NIEKTVVP2nEmOF4jNxqQ 0.2857411 -0.06490874 0.32026526 0.060588695 0.21645215 0.13837644 -0.32692006 0.13499703 -0.38664913 -0.13229933 -0.0023425755 -0.30631348 -0.24454029 0.2516489 0.61042124 0.012176467 0.1339333 -0.26416928 -0.32169384 0.05837783 0.24290685 0.22784816 0.07445484 -0.34504178 0.09468699 0.067392305 -0.20752491 0.057567656 -0.31163976 -0.004225256 -0.03704061 0.08707302 0.24179533 -0.2703127 -0.1758504 0.2165554 -0.08529131 0.19389534 -0.024778187 0.27610552 0.14528471 -0.20452859 -0.23237279 -0.60211706 -0.026567597 -0.054549914 0.053103574 -0.2081597 -0.36512035 -0.21732342 -0.056536596 0.41774848 0.3277212 0.046640236 -0.20283051 -0.1824712 -0.092559695 -0.45522135 0.37710324 0.13643287 -0.30989683 0.18520072 -0.17843463 0.1053111
lqHk6vmnSoTaZwMLSfq1MA 0.013745282 -0.3368867 0.27792108 0.13574341 -0.11732735 -0.5538025 -0.09243472 0.038528644 0.024981057 0.00910336 0.25011876 -0.17982443 -0.5277355 -0.066266075 0.27219734 -0.26718023 -0.015126788 -0.15685092 0.027422901 0.30196595 -0.0058619003 -0.06667988 -0.11152522 -0.3830454 -0.019901428 0.43225053 -0.56451803 0.36854547 -0.011810765 -0.31790876 -0.10383719 0.08369545 -0.054647617 -0.3479364 -0.007814387 -0.27636355 0.21023996 0.14696772 -0.3979079 0.021243004 -0.019373814 -0.04533192 -0.27638403 -0.28278667 0.13281266 -0.030868992 -0.15214956 0.23072603 0.23229735 -0.15989326 -0.21308596 0.19025372 0.1224366 0.40231568 0.13977489 0.36063844 -0.003246329 0.006146199 -0.28396183 0.31191474 -0.004096334 -0.0336126 -0.022840673 0.028658738
cxVp-a28Cp7lavjaPMvK5w -0.025985558 -0.27559748 0.16867761 0.17353253 0.33877465 -0.48148072 -0.26064232 0.30975714 0.013284436 0.18872471 0.19367588 -0.09004422 -0.38991952 0.17092066 -0.017420122 0.44409412 0.061006624 0.082158156 -0.017419426 0.46133935 0.19754748 -0.120143004 -0.04759338 -0.3643142 -0.13166584 0.41754296 0.05543061 0.29920235 -0.20263565 -0.55808485 0.20082773 -0.02289926 -0.046734948 -0.23093618 -0.016804967 -0.19020167 -0.37890607 0.11072049 -0.22368322 -0.16572464 0.028397178 0.051848326 -0.056301065 0.057505924 0.6967548 -0.20941655 0.3316925 0.028325286 -0.100865856 -0.40728384 -0.2421815 0.090002514 0.063961886 0.08902423 0.26460716 0.19215061 0.39007133 0.09512414 -0.28520188 0.13392071 0.111983515 -0.085206494 0.026700916 0.079934895
Xt6xo-UmJhYtHiscwRnw0A -0.19364826 0.120917134 0.29294863 0.012426401 0.2346599 -0.65848196 0.021121297 -0.09550234 -0.03713662 -0.13128716 0.49912733 -0.30557364 -0.35581067 -0.10860871 -0.034119114 0.086930916 -0.31306148 -0.15671374 -0.20070745 0.5111125 0.09181922 -0.03859986 0.34720078 -0.09603476 0.31085417 0.29866785 0.10211919 -0.08143706 -0.037015084 -0.41421294 0.13560265 -0.1413994 -0.28596932 -0.45879206 -0.02286512 -0.0002374021 -0.097817436 0.089267686 -0.252153 0.0900225 0.029010616 0.089855514 0.13238735 -0.0668934 0.05593534 0.13229285 -0.014997947 0.013478054 0.038582187 -0.57111317 -0.17138365 0.014902388 0.40198097 0.52107525 0.21586066 -0.3613124 0.017632267 0.20134993 0.062449828 0.5117011 0.089706235 0.033572156 -0.12559919 0.27181822
RKVYQ00LvK0_FO6Ll7lvOg -0.027199268 0.00197193 0.028352592 0.18940923 0.09730771 -0.34746432 -0.5106438 0.15017578 -0.4207531 -0.1924408 0.28601545 -0.10655995 -0.08210496 -0.09528579 -0.26191154 -0.10185211 -0.27049297 -0.08681116 -0.17252496 0.09422035 0.52587086 -0.091697335 0.07302966 -0.46176806 0.10984194 0.06774023 0.03562877 -0.58989793 0.0010256049 -0.20149554 -0.27792716 -0.08034814 0.36309907 -0.562695 -0.29367173 0.15868619 0.14001295 0.20375833 -0.06513122 0.16360113 0.010684945 -0.20480935 -0.10093779 -0.41540587 0.11425449 -0.25734073 -0.24555595 -0.28120226 -0.115173206 0.4092112 -0.24880084 0.14562197 0.07681847 0.3817723 -0.20371835 -0.025569186 0.042145953 -0.12774876 0.040867496 -0.0026830798 -0.38619113 -0.044017747 -0.13632561 -0.59470934
mt9mrG8wALTzD3YYGim3mQ -0.044947546 0.18461436 0.012041 0.18996009 0.13768014 -0.17706673 0.18969952 -0.47920987 0.15755051 -0.033199277 0.48173392 0.31985408 -0.18768625 -0.17547904 -0.1515718 0.13789718 -0.19981883 0.29338652 -0.30545276 0.28832003 -0.12466058 -0.1618737 -0.14968817 -0.40657103 0.3039623 -0.0018716257 -0.14482622 0.016378632 -0.26908773 -0.120963685 -0.089750946 0.21762094 -0.094035685 -0.42067397 0.45557275 0.10545312 -0.46662852 0.37475136 0.10690261 0.44323933 -0.0795234 -0.20710132 -0.32403308 -0.36574602 0.5192642 -0.10131129 -0.17353792 0.18464844 -0.061004132 -0.15668407 -0.044977415 0.20341676 0.29291898 -0.27734742 0.47643313 0.26102927 0.044535745 0.10104466 -0.26961547 0.43011037 0.26378137 0.05935147 -0.05945267 0.5338989
Eg_M8eeu9SDEdbP7iUmVbQ -0.120738484 0.097739026 0.31357226 -0.04559104 -0.02560789 -0.033528633 0.2729111 0.16443068 -0.10482746 -0.085767806 0.05725979 0.121236235 -0.030370032 0.024956875 -0.289717 0.31867883 -0.48717862 0.1606194 -0.30995587 0.013947496 0.30111754 0.013566556 -0.014475312 -0.86586004 0.030827934 0.12692611 -0.5338513 0.18585679 0.052628644 -0.005313433 -0.34677315 0.12606697 -0.5305574 -0.15082577 0.5205148 -0.12677826 -0.20234425 -0.40216705 -0.15736854 0.24075514 -0.090931356 0.29148865 -0.29826623 -0.24330136 0.43456966 0.0069636484 -0.10577502 -0.33984762 -0.29715335 0.114645995 -0.03812334 -0.039854396 0.006265554 -0.20486774 0.3660073 0.082441725 -0.16209099 -0.23335657 -0.29128566 0.14265378 -0.3809062 0.260702 -0.42869034 0.34310725
c5CWmwh0-WFIjn8_V2DECQ 0.20116961 0.23415048 0.33914873 0.48683617 0.067404956 0.038922563 -0.13451384 -0.0806217 0.061852787 -0.5617889 0.2771577 -0.28075543 0.21476027 0.34963208 -0.2782459 0.589451 -0.49706277 0.16351193 -0.29334 0.30076915 -0.07994515 -0.3029028 0.15232141 0.008245436 0.04216794 -0.022274991 0.22093445 0.16113478 -0.28473043 -0.46723685 -0.17999552 -0.09536954 -0.29437342 -0.51528096 -0.1785644 0.063834906 -0.33947274 0.012316597 -0.92034334 -0.022319226 -0.18777268 0.27448833 -0.5953473 -0.03597155 0.3784425 0.3414919 -0.21974367 0.0031465518 0.03622943 0.11256704 -0.41412616 -0.18671784 0.46677488 -0.31173012 0.16098006 -0.05510887 -0.09198903 -0.23020653 0.22138529 0.095644236 -0.026272355 0.17090392 0.142775 0.0440196
S8urdN6ACnRQUm-7o9An8w -0.20788573 -0.004333046 -0.1400438 0.123806335 -0.14484197 -0.2384063 -0.43122402 -0.07574841 -0.053768873 -0.26067472 0.3263557 -0.13144721 -0.14676766 -0.24033566 0.027839364 0.0010908121 -0.41511473 0.27723384 -0.027082538 0.50078505 0.2384831 -0.06184354 0.25466082 -0.5110012 -0.13801706 0.28136247 -0.1923796 0.16147579 -0.067225195 -0.08394015 -0.14104728 -0.5347622 -0.28230986 -0.44408518 -0.1744828 -0.18700229 -0.14463715 0.2573635 -0.07532677 0.13367693 -0.018619975 0.22961588 -0.2818334 -0.3311919 0.06949724 -0.14162205 0.27494422 -0.1927713 0.18272033 -0.21443604 -0.048626993 -0.113871135 0.44869122 0.25111955 0.13492855 0.23745082 0.40436545 -0.1145677 -0.07933115 0.07252029 -0.15503259 -0.38478673 0.13196048 0.015389922
ddouZi236BpT15DzXjRHiA -0.20933744 -0.17113966 -0.06096813 -0.042911522 0.041808072 0.25047892 -0.07445935 -0.045394063 -0.06363812 0.20421885 0.6269589 -0.027903996 -0.6042723 0.006787244 -0.2322365 0.37695736 -0.42377162 -0.13198946 0.17115924 0.13245164 -0.12970287 0.12157468 -0.45696694 -0.5392364 -0.38530636 0.39965004 -0.051259167 0.3165848 -0.20118058 -0.20487306 -0.039399903 -0.38198698 -0.3158458 -0.265766 -0.11626662 0.18571694 -0.19238083 -0.011092494 -0.27977663 0.13120314 0.13532983 -0.10634454 -0.11004521 -0.07088695 0.16897506 -0.3017448 0.5093646 0.014808569 0.017815871 0.055388395 -0.04797567 0.2247327 0.031429227 0.023642808 0.39957902 0.15790327 0.20894094 -0.34667447 -0.26502517 0.38395992 -0.0045002014 -0.32361087 -0.28022406 0.03678258
lKom12WnYEjH5FFemK3M1Q -0.06361724 -0.11619154 0.20759426 0.18057767 0.039030977 -0.101226486 0.37345168 0.3345127 -0.23891768 0.23445262 0.45626566 -0.14069805 -0.043669995 0.20074694 0.14192426 0.38985443 0.005137031 0.15141797 -0.17534466 0.5738952 -0.055211186 -0.14660288 0.12480202 -0.22066218 0.099862404 -0.109363206 -0.2696465 -0.6105567 0.10134999 -0.350216 -0.32358786 0.018907078 -0.31623387 -0.463911 0.34747353 -0.11809036 0.11199515 -0.011447685 -0.15131244 0.36497194 0.15578836 0.044822197 -0.025148027 0.059756 0.41209793 0.19543195 0.14703143 0.168612 0.07696053 0.20602897 0.39259934 0.36329427 0.5572109 -0.076855324 0.20914407 0.25532985 -0.31501406 0.2508144 0.050491333 0.18777135 -0.08430495 -0.11723663 0.29527745 0.011679832
ZwuHsufvw1x5rd2c-qyw2w -0.20285597 -0.31345144 0.14539738 0.32252434 0.38665938 -0.09581216 0.24513796 -0.14239843 -0.083054826 0.105947554 0.3292605 0.050238892 -0.25897434 0.31673792 -0.014888072 0.2782205 -0.41493627 0.46692967 -0.31970286 0.13513868 -0.09309557 -0.026200978 0.01060568 -0.48901588 0.060471687 0.024580082 -0.31479743 0.14859086 -0.47567502 -0.07554146 0.0646049 -0.03205745 -0.4261932 -0.4821498 0.19061589 0.13600889 -0.3985532 0.13056445 0.506113 0.22148639 0.28735417 0.16425975 -0.16150266 -0.059046663 0.18016954 -0.16921996 -0.08004302 0.3239425 -0.2710125 -0.050991282 -0.48462382 0.08011438 0.26721975 0.076931156 0.2207966 0.3088086 0.22293453 0.07139956 0.09479389 0.11839487 0.0073028957 0.046230484 0.32559356 -0.11593553
SmkYLXEYhzwUZdS6TAevHg 0.3045591 -0.58319235 0.058112852 -0.13801663 -0.14484738 -0.27261367 -0.2409249 -0.047077324 -0.2710605 0.0742088 0.34929824 -0.20570588 0.1579665 0.32560167 -0.00328134 0.18157238 -0.4598965 -0.20662561 -0.14516534 0.65451807 0.5128972 0.2987282 0.04311341 -0.47976074 0.2421091 -0.43529227 -0.19622228 0.10664109 -0.040256035 -0.016652763 0.19921006 -0.12059749 -0.005378724 -0.39743385 0.11286708 -0.13630828 -0.0331893 0.18335159 -0.11602914 0.188325 -0.11799454 -0.14013734 -0.022131614 -0.116815865 0.09231896 -0.29461727 -0.06961699 -0.0076812576 0.12596087 0.33082008 0.054194726 0.14518213 0.12020627 0.17972106 0.074714124 0.14699757 -0.24959111 0.04575676 0.25026643 -0.03156039 0.0046756463 0.0065016695 -0.1658103 -0.36244246
fykyDLOPBKphKy9fmZ4Kgw 0.02799064 -0.16781484 -0.12146927 0.15612979 0.77724814 0.06618065 -0.17886785 0.0780474 -0.3973214 -0.010791442 0.18894164 -0.19810238 0.06333793 -0.12377649 0.03042339 0.6309184 0.21710597 -0.003215245 0.2851232 0.9333674 0.120245025 0.011811005 0.27122706 -0.2097745 0.010560117 0.347564 -0.3036648 0.36297944 0.21191554 0.23741181 0.15288942 0.27003753 -0.0750607 -0.54427445 -0.27796975 0.5813525 -0.18379109 0.11032913 -0.17942083 -0.30128056 -0.14555967 -0.16479912 -0.08825555 -0.113341704 0.006048181 -0.20074755 -0.07264856 0.17098695 -0.12781101 0.27409363 -0.35024953 -0.015931651 1.5393021e-05 0.19745876 0.026152289 -0.16316645 -0.017086206 -0.028349493 -0.20961154 0.01589905 0.26489052 0.0711725 0.12529884 0.0735575
K3lYaKPdaBim-LCOcmi6Jg 0.16838485 -0.5238009 -0.20050822 0.16224739 0.31125236 -0.13361974 -0.11901696 -0.16109692 -0.16068739 -0.04905164 -0.2225075 -0.2106132 -0.4134055 -0.53898853 -0.20008928 0.024665669 0.30640206 0.23380499 0.0034577784 0.8430334 0.13933131 -0.15635362 0.37063435 0.048969693 0.19480632 0.4556839 -0.62686795 0.07050463 0.025659 -0.080904126 -0.45650914 0.19302446 -0.089481786 -0.25186393 -0.3257916 0.3465578 -0.3055006 -0.008838225 0.082038574 0.51747584 0.366002 -0.0809929 -0.26685208 0.008282231 0.037815142 0.15096799 -0.044297624 0.11963332 0.049239215 0.042091824 -0.10746433 -0.09898733 0.2926862 0.017796975 -0.18366298 -0.18088582 -0.57833576 -0.596269 0.06594189 0.18000847 0.2046007 0.32738584 -0.21655548 0.08513504
NoF90rswXBHESSyDaWeKKA 0.20578903 -0.24047305 -0.12316716 0.09042264 0.22183257 0.01829142 0.17065495 0.13453211 -0.61316586 0.26587635 0.3325515 0.04023377 -0.35680017 0.28489944 -0.098461404 -0.2858153 -0.2436257 0.017611206 -0.18655366 0.54043573 0.5109913 0.123875156 0.01907474 -0.33587986 0.10408782 -0.0277779 0.1318067 -0.29725447 -0.2151265 0.031321492 -0.10336974 0.2359443 0.049638826 -0.49956432 0.25880617 -0.017701123 0.40673763 -0.16350883 -0.075267926 0.1836397 0.30188408 -0.5088821 -0.06368143 -0.076725505 0.069296785 -0.1215615 -0.28319827 -0.39799234 0.28238356 0.3126453 0.057724465 -0.01671217 0.38564998 -0.044983957 0.061105628 0.17849836 -0.19345012 -0.38277954 -0.41306195 0.16163905 -0.026195748 -0.055469457 -0.07618422 0.044328142
OPcGFLP_mRt9yvgP3ALXOQ 0.4416048 0.042044595 -0.015521612 0.23622769 0.051696576 0.41477966 -0.06578038 0.014657208 -0.25315604 0.122802526 0.3080757 -0.7522427 0.23285867 0.2470501 0.37251723 -0.0043647946 -0.1389297 0.07099564 -0.2583442 0.14312987 -0.0043924237 -0.37443888 -0.20957977 -0.471322 0.081241846 -0.11545189 0.25797793 -0.2875474 -0.21518996 0.061809484 -0.23826475 -0.19843046 0.090067245 -0.46866333 0.023215136 0.17767125 -0.19006212 0.26295945 -0.51193523 -0.03462539 0.13607532 -0.2522256 -0.13996862 -0.07832028 0.008182427 -0.48134062 -0.56885296 -0.34978393 -0.06838123 0.076338805 0.26316702 -0.2781917 0.36115196 0.38073492 -0.32064137 -0.47445157 -0.054256473 -0.52715975 -0.44071144 0.49164665 0.103877 -0.1829965 -0.016490452 0.021351269
ejaUQ1hYo7Q7xCL1HdPINw 0.30003172 -0.06697599 0.14793913 0.22309804 0.14163108 0.032675147 -0.112112604 0.11717568 -0.63518727 0.2923928 0.2301678 -0.32007545 0.36397648 0.33651337 0.16731302 0.09551123 -0.18716204 -0.021573957 -0.16366602 0.57534826 0.08079822 -0.07272936 0.17074655 -0.34673366 0.45330736 -0.2577842 -0.1969702 -0.3518348 0.2881341 0.0734133 -0.39025941 0.37083402 0.121341616 -0.40345615 -0.039650273 0.10809372 0.26919308 0.1763643 0.12956865 0.23959148 0.037685037 -0.3653398 0.25211182 -0.14456046 0.25503683 -0.15828827 0.11306388 -0.23165902 -0.06235905 0.25521854 0.1158383 0.14587486 0.43093535 0.5738079 0.16656888 0.071387954 0.046448607 -0.18181455 -0.1541525 0.01825168 -0.12691896 -0.16715328 -0.38139582 0.08024361
0bjFYstj8USMzEV4ZQldjA 0.13077722 -0.07915275 -0.013299162 0.021242872 0.33697218 -0.34712335 0.06696517 0.13780242 0.088936485 -0.19871739 0.32281327 -0.1555627 -0.35250074 0.13694112 0.11059724 0.87827724 -0.23562436 -0.35927555 -0.32144815 -0.15913309 0.2599049 0.095853746 -0.018638445 -0.31222674 -0.11802979 0.31303257 -0.3039681 0.54798007 0.40238175 -0.032302704 -0.5213113 -0.07698894 -0.05991087 -0.5231206 0.013960903 -0.042996548 0.08379016 0.1281563 0.3874987 0.097470626 -0.06048793 -0.11570901 -0.3853686 -0.09056496 0.12221287 0.11366415 0.19163641 -0.08246218 0.30674657 0.06438787 0.018148689 0.36652625 0.3511966 0.1817845 -0.09889103 -0.0924305 0.16061802 -0.21568581 -0.08602349 0.111972086 -0.2352906 -0.1635507 -0.51214385 0.4938077
oeW0vIYd3rUnAPgmD4fEFg -0.38508904 -0.1408343 -0.17816326 0.2551719 -0.12775274 -0.1332907 0.47801784 0.23109394 -0.40606532 -0.004095071 0.6856202 0.09705215 -0.15854715 -0.11574174 -0.060710434 -0.020475924 -0.23551828 0.30664405 0.0032726165 0.45537445 -0.24349053 0.24482177 -0.16664918 -0.6266242 -0.09515679 -0.2377653 -0.20640825 0.15424885 0.260383 -0.07001854 -0.29727077 0.5082381 -0.06551203 -0.264567 0.17604657 -0.025083972 0.0627276 0.10088752 -0.24250957 0.37910774 0.37112755 0.24677911 -0.38049832 0.04159896 0.1346468 0.21245198 0.121291384 0.44303852 -0.4793526 0.24673823 -0.23811473 0.1857088 0.37252665 -0.08940686 -0.045057815 0.09924565 0.09589314 0.14375779 -0.20594142 0.2475568 0.12433865 -0.11738102 -0.16972119 -0.17662664
hcFSc0OHgZJybnjQBrL_8Q 0.28525305 0.050404187 -0.055100925 0.2911325 0.21792834 0.080474466 -0.040186446 -0.5776599 -0.22639343 0.10956016 -0.13713932 0.041091096 -0.17131248 -0.15005453 0.12011895 0.60604095 -0.5629954 -0.20265318 -0.4053278 0.37771493 -0.20243412 0.25528738 -0.04020773 -0.018338809 0.12861273 -0.2027783 -0.24653064 0.19305737 0.051062874 -0.24168572 -0.47780573 -0.03769076 -0.29754764 -0.37410232 0.043020733 -0.018128574 -0.028412865 0.079203285 0.019328248 0.27503124 -0.2410306 0.7019264 -0.33210316 -0.011176273 0.2783121 -0.029014252 0.038291443 -0.022997199 0.14911874 0.4460569 -0.48870906 0.44544515 0.052509114 0.09570649 0.13790907 -0.09411155 0.012168536 -0.08510107 -0.4347522 0.37715873 -0.18651322 0.08843387 0.28224826 -0.35630152
plHKBwA18aWeP-TG8DC96Q 0.3074273 0.017706614 0.19577621 0.21297808 -0.056065533 0.0733265 -0.42113322 -0.2921974 -0.4973984 0.059780136 -0.21845965 -0.33022884 -0.32425973 0.26335007 -0.004560102 0.40433657 0.49380696 -0.034133356 -0.106390655 0.70530933 0.16664104 0.4623591 0.26581246 -0.2535976 -0.062157042 -0.16788247 -0.09576413 -0.10815372 -0.03711563 -0.15455924 -0.00912837 0.013224768 0.1074589 -0.2884834 0.43944836 -0.110775575 -0.23579976 -0.13602027 -0.27314064 0.14116919 0.27117684 0.06791459 -0.110464364 -0.04528438 -0.13971567 -0.20521303 0.16432434 0.023978082 -0.17875251 -0.18422844 -0.00047163977 0.2998964 0.30202857 0.3737304 -0.1890154 0.115032 0.1886367 -0.4617258 0.1982039 0.18228823 -0.15568867 0.38975167 -0.25556743 -0.20395587
RqmORv3974ZDC6Zh4nSQwg 0.1542906 -0.0878426 -0.2801814 0.035680782 0.08537778 -0.012514007 0.6474019 -0.08366058 -0.1787393 0.02479842 -0.172962 -0.10364105 -0.18894443 0.44274178 0.04058528 0.3124157 -0.26866364 0.29888758 -0.066588275 0.3643997 -0.17976645 -0.22679192 -0.16171914 0.03925355 0.06036679 0.09353928 0.026844455 0.43668163 -0.16702695 0.04727971 -0.4836166 0.162756 -0.05139835 -0.29414895 -0.27175334 0.0938865 -0.044760644 0.407175 -0.35286164 0.09173467 -0.16531155 0.106828354 -0.020660248 -0.011631947 0.91144884 0.09877177 0.19907409 0.16742507 0.113502756 0.13390717 -0.737811 0.18070303 0.12387786 0.1322043 0.340062 -0.3471608 -0.30754802 -0.41266412 -0.14610004 0.5042721 -0.41428384 0.010444425 0.260645 -0.13744238
w_UCGMgok7N9p0XdYBx1VQ 0.06776703 -0.5362053 -0.38956672 0.018160453 -0.07875791 -0.18750553 0.0908242 0.014402067 -0.37549797 0.15681317 0.015990343 0.010525393 0.1893218 -0.16558567 -0.108470716 -0.13350451 -0.18669212 0.045650076 -0.06888793 0.37687618 0.3624935 0.067029424 0.35714406 -0.6438795 0.41737399 -0.24240951 0.05738826 0.08248062 0.48409784 0.12680854 -0.10421145 -0.17534587 -0.1534207 -0.61549115 0.3440876 0.1297087 0.3134368 0.30965486 -0.017323809 0.545848 0.18075384 -0.33295727 -0.36915916 0.2881989 0.35318053 0.13750502 -0.19996963 0.029909426 0.13001361 -0.15454495 -0.18459272 0.040158026 0.32540485 0.086062305 0.3359869 0.45281848 -0.116724126 -0.2325596 0.11984993 0.010264307 0.023763288 0.28848714 0.077586494 0.14097714
rreIYrzI9U052p7nN_qogA 0.076872244 0.20436722 -0.23099317 0.083364435 -0.13500628 0.28221458 -0.24312387 -0.12491606 0.0026225578 -0.45366335 0.19049518 -0.23233399 -0.109451056 -0.34092835 0.2984411 -0.45050186 0.17811924 -0.0026346345 -0.11317506 0.38570115 0.17197506 0.1857187 -0.32014886 -0.22853349 0.12779346 0.11577966 -0.14831673 0.17777424 0.012545585 -0.058114577 -0.17590351 -0.3236613 -0.37913102 -0.6114652 0.18810286 0.12827237 -0.2181031 0.12145514 0.06258578 0.22896838 0.15742496 -0.48654935 -0.11583934 -0.021849465 0.35251406 -0.2282187 -0.32187247 0.3414182 -0.22705458 -0.15290076 -0.004943387 0.2872746 0.14693023 0.21332897 -0.079329655 0.21977462 -0.22961405 -0.65683156 0.4290347 0.364744 0.23488536 0.4303479 -0.26783818 -0.3331462
Ul6JwluSTm12PVDIqnNaTg 0.1965762 0.06366673 -0.09429755 0.095147535 0.14915045 -0.06067206 0.54174596 0.1674823 0.06173617 0.33985275 0.19388124 -0.3092478 -0.22165157 0.30001524 -0.13792129 0.36284888 -0.61916536 0.10557663 -0.47536322 0.5081624 -0.569745 0.20451109 0.0020938287 -0.07568227 0.01915229 -0.05810863 -0.25983226 0.21644844 -0.12794274 -0.08937745 -0.4248373 -0.15276077 -0.047712125 -0.12926207 0.31164265 -0.0944506 -0.4151069 0.040156554 -0.26844114 0.13023536 -0.096834466 0.543015 -0.1483735 0.21672171 0.437471 0.59725136 -0.03482592 0.13325547 -0.03428226 0.08582989 -0.5189547 -0.045792487 0.25545746 0.23637202 0.24777536 0.25784695 -0.08260103 -0.592086 0.10609925 0.33119327 -0.27242675 0.4224033 0.15073249 -0.30812907
PBmMvDows5HWIqrEVvNfQQ 0.16623288 -0.2390777 0.042567488 -0.020013344 0.18669112 0.43115845 -0.32912806 -0.124246724 0.021076396 -0.23592898 0.46817514 0.11970191 0.3084281 0.03274643 0.6018872 0.0034978827 -0.44029358 -0.023108529 -0.30062228 0.2853164 0.113999225 0.72436225 0.06745301 -0.256586 0.16895556 0.6435097 -0.01413084 -0.19564635 -0.6268739 0.065907165 -0.10817711 -0.21275644 0.2644979 -0.4154366 0.07535301 0.17528133 0.060317025 0.038859077 -0.06526756 0.29038218 -0.03509992 -0.3076335 0.20425855 -0.04898293 0.17210107 -0.14816898 -0.06521032 -0.08067485 -0.28168276 -0.30949423 -0.33422044 0.061783742 0.2007401 0.28505263 -0.2576123 -0.23203787 -0.21192448 -0.46981922 0.17750171 0.39542046 -0.035139393 -0.06424871 -0.04837333 -0.02517
wmCBxE0PfLZD8sxIwAY59Q 0.016855018 -0.101905085 0.15307647 0.1884587 -0.12829073 0.19019873 -0.028257115 -0.083333254 -0.10022874 0.00032158554 -0.08373389 0.21537353 -0.019567855 0.26179174 0.18049018 0.120402314 -0.0017077483 -0.2199007 -0.47856876 0.63510495 -0.1928235 0.21680693 0.4656808 -0.85447484 0.071515396 0.021015301 -0.08297797 -0.5810194 0.22472112 -0.060295265 0.10050549 0.4699379 -0.1343581 -0.5114659 0.15183814 -0.42724004 -0.30546162 -0.035488658 0.15031263 0.72400814 0.023233416 -0.44247502 0.00707589 0.17635703 0.098202944 -0.4828133 -0.35380968 0.20275421 -0.2354435 0.106134504 -0.16234237 -0.017245445 0.17097618 0.24396393 -0.22921506 -0.28667724 0.058195606 -0.2714369 0.18552206 0.11119139 -0.21629833 -0.073722586 0.14950515 0.02095018
Q4WmBfRD6rcTSXVZqjKC5Q 0.19392765 -0.2599009 -0.14166169 0.013464431 0.26239622 -0.3628575 0.14151694 0.40587696 0.56612164 0.20293054 0.17164427 -0.121361546 -0.2782659 0.15495111 0.1581192 0.15070795 -0.41847605 -0.26846024 -0.07154981 0.2486093 -0.006615732 0.3146563 -0.052803837 -0.52653444 0.13066396 0.62109035 -0.4746397 0.40290755 0.41672078 -0.10689635 -0.30649576 -0.07290808 -0.20698766 -0.23220521 -0.40335616 -0.12738746 0.25804943 0.45816544 -0.12322812 -0.18069907 -0.3114235 0.04611387 -0.38603005 -0.41380027 0.23949642 0.22671065 0.057908908 -0.051834993 0.37457043 0.033846688 -0.30546644 0.58511716 0.34138218 0.062123597 -0.17138772 0.057590626 0.11911564 -0.24626507 0.054951325 0.14781824 -0.25699207 -0.03296963 -0.06402407 0.36956924
id0K2DhGNocMRMoBcvCsyg 0.14041728 0.0868884 -0.037021294 0.34700704 0.77391756 0.14704621 0.1773431 -0.017152071 -0.0078270845 -0.07537235 0.5800494 0.3548918 -0.38420495 0.047574732 -0.23268852 0.4513955 -0.18040998 0.19131862 -0.034832902 0.12647355 0.06217916 0.056714777 -0.58275336 -0.5746954 0.11681593 0.50392836 -0.31637114 -0.25630108 0.2145294 -0.0959388 -0.18496023 -0.3314178 -0.08944783 -0.22949488 -0.040630233 0.026957443 0.12225403 -0.12364399 -0.005935354 0.19143048 0.28075272 0.355627 -0.062158428 -0.4409363 0.44019264 0.16478233 -0.06626103 -0.26377574 -0.19766368 -0.077187836 -0.2754415 0.03804429 -0.12084453 0.17476039 -0.024863446 0.44679207 -0.023852402 -0.2103938 -0.27714342 0.077946804 -0.5523669 0.18774037 -0.16255721 0.019992465
sMzNLdhJZGzYirIWt-fMAg 0.25616926 -0.12566993 -0.013633504 0.2789551 -0.0035745224 0.062493518 0.53437394 -0.34820023 -0.14834931 0.16220517 0.29370284 -0.060212124 -0.42929575 0.15413582 -0.048747495 -0.13185804 -0.46966055 0.3236959 -0.110583596 0.62372494 0.3576453 -0.042076275 0.19401899 -0.029889904 -0.23522921 -0.24448657 -0.09289957 -0.0026088522 0.056312837 -0.3544661 -0.3169423 -0.32388273 -0.120837726 0.024659246 0.45628455 0.17672817 0.20362476 0.051943567 -0.56387997 0.44517824 -0.40733847 -0.16535798 -0.1057688 -0.16582745 0.8036354 -0.029157382 0.11477747 -0.0015246406 -0.104731865 0.14842151 -0.6749969 0.04317666 0.197959 -0.27182245 -0.13633049 -0.033240326 0.11685986 -0.29861328 0.076678194 0.2725849 -0.035854854 0.13230312 0.54975384 0.14558312
dRbmeC5hl211hH-WeMtv-g -0.120468624 -0.27871692 -0.1337411 0.58263206 0.05720441 -0.41400126 -0.24682918 0.10565292 -0.24326152 0.101015225 -0.04682929 0.1072012 -0.008440657 0.14726916 0.22364712 -0.0071868002 0.04121721 -0.013029379 -0.32217962 0.18400817 0.20319693 0.39142215 0.29501033 -0.7537127 0.06381144 -0.33531377 0.06450972 -0.43121853 -0.10696104 -0.08521016 -0.16371918 0.019959161 0.30896905 -0.6943326 0.17064095 -0.107518405 0.10930594 0.21391544 0.010738541 0.1354963 -0.31176478 -0.28703082 -0.024404166 -0.2597377 0.4421313 -0.09015642 -0.16319546 0.152797 -0.08015046 -0.1808344 -0.031326912 0.21792702 0.029742008 0.10996457 -0.07715746 0.32415423 0.1294883 -0.40028962 -0.13472301 0.012698743 0.14000513 0.22350395 -0.012329406 -0.2558974
17DImn_vPnuwU9hhRFXlUA -0.08713117 -0.2335651 -0.19643725 0.21246304 0.35036343 -0.3135526 -0.29126862 -0.2983009 -0.3290364 -0.23188697 0.2595592 -0.17311111 -0.3720383 0.3374295 -0.048743106 0.033743847 -0.064552456 -0.17339036 0.24951808 0.32905224 0.44458598 0.41364393 -0.029854475 -0.6504977 -0.24846286 -0.057832588 0.022742298 -0.22997013 0.015168639 -0.08923101 0.024241585 -0.16825992 0.32805353 -0.17792994 0.2249399 0.1699054 -0.041692182 -0.14596115 -0.29417753 0.33378112 -0.26093557 -0.57724106 0.047478706 -0.2975649 0.24840283 0.012348027 -0.15841764 -0.21657121 0.19012983 0.23983504 -0.19498451 0.08593061 -0.24601395 0.0795866 -0.46172932 0.10812558 -0.021458654 -0.42667818 -0.060647603 0.14114311 -0.35293955 0.3064305 -0.12460184 -0.52567774
vC99Gqe6d7OWCngF3rqqDg -0.26867932 0.36116406 0.20731503 0.10767035 -0.10925712 0.16295032 0.039238237 -0.22161435 -0.4536859 -0.078291535 0.4113978 -0.07257418 -0.1742463 -0.06998894 -0.2885277 0.4001426 -0.1922505 -0.018646602 -0.34141496 0.60565394 0.24468185 0.03455364 -0.10235572 -0.2206397 -0.28221467 0.06846517 -0.052130032 0.0045629046 -0.055184226 -0.054299656 -0.099765815 0.3398127 -0.07516961 -0.16475275 -0.083589934 0.08735484 0.0008331868 -0.067479596 -0.0055119786 0.03666122 0.10872971 0.11455557 -0.33131993 0.094335176 0.6201678 0.6192935 0.06377654 -0.1452873 0.2340456 -0.29295364 0.011127057 0.3438042 0.280881 0.355035 0.47830653 -0.22706184 0.22797595 -0.40243068 -0.02309514 0.22457448 0.2742526 -0.5890205 -0.6650295 -0.029722944
bXCWON2Me0o86qvAb-XZPQ 0.19441782 -0.2743963 0.08125139 -0.058866754 0.37680689 0.25079173 0.037094202 0.14574912 0.16885884 -0.5630713 -0.05485077 0.089924194 -0.29739827 -0.42529663 0.25450185 0.024927465 0.055538636 -0.21000357 -0.0037788746 0.61155874 -0.013382246 0.2493183 -0.12686352 -0.27872053 0.09687169 0.03319262 -0.21720313 -0.18340209 -0.16552335 -0.37383074 0.09762901 -0.35650706 0.3609245 -0.42397487 0.021221777 0.14768898 -0.3212224 0.19682133 -0.0972782 0.17761777 -0.07519785 -0.7601991 -0.34461743 0.15172127 0.20427045 -0.15254274 0.12882608 -0.121033564 -0.3834649 0.00038082583 -0.18614122 -0.054405667 0.4344162 0.4712499 0.6012677 -0.49581376 -0.29172 -0.20997044 0.23592824 0.26161408 0.11772435 0.04093776 -0.077878475 -0.43073893
uRybQLCYWkC6N19MhaHf_w 0.0531942 -0.0843228 -0.30873418 0.16256794 0.026414994 0.06723139 0.001563393 -0.55702525 0.009088582 0.18083152 -0.047330737 -0.06605995 -0.5843651 -0.05041867 0.4970894 0.25552374 -0.63583493 0.2033023 -0.3319238 0.40945375 0.08965065 -0.058897357 -0.24566562 -0.13332029 0.16559198 0.1673461 0.020651862 0.16617192 0.10251873 -0.1346311 -0.7683508 -0.38012823 -0.057768986 -0.0009480947 0.23468122 0.09876971 -0.10511369 -0.045469187 -0.36360794 -0.21171378 -0.26381707 0.23398392 -0.064655066 -0.21073458 0.5705447 0.4605064 -0.19991067 -0.019199166 -0.027688812 0.4842818 -0.42850453 0.29599684 -0.018504636 -0.14962502 0.05682449 -0.019039318 -0.047174305 -0.21229324 -0.21464376 0.19176923 -0.12511393 -0.12816745 0.17570074 -0.5633441
erx8tQ0Wdc5YM0FddaKqKA -0.15850335 -0.003100999 -0.43825772 0.29854137 -0.079699576 -0.08100196 -0.6010498 0.22194833 -0.6924385 0.3183773 0.35374293 -0.09675656 0.09908393 0.21305564 0.27941135 0.14482267 -0.22065476 -0.03789174 -0.04172136 0.28301272 0.20386721 -0.3471507 -0.21287754 -0.6558975 0.0018140856 0.06894888 -0.16989765 0.15097289 0.0574377 0.3501549 0.03899266 -0.024457494 0.32828185 -0.36052382 0.10332889 0.23273268 -0.619317 0.35601103 -0.59907037 0.0047296397 0.30115455 -0.14238834 0.22564234 0.08250657 -0.13219428 -0.41715056 -0.16195765 -0.1167242 0.089284174 0.3250048 0.0050096167 0.29154062 0.164846 -0.2203066 -0.3036693 -0.5168522 0.16988918 -0.06890227 0.011578741 0.098729014 -0.22425023 0.20750055 -0.3112263 -0.2573157
LQFmktF43j2NPncKdNd9mg -0.35383663 -0.034047954 -0.100216225 -0.09171334 0.10909919 -0.35426345 -0.28468034 -0.18158753 -0.66582745 0.2783722 0.6129302 0.2856724 -0.2550148 -0.26144937 0.17067641 0.6108007 0.019164655 -0.50478387 0.0468282 0.042720504 -0.077691294 -0.26864827 0.220772 -0.77630687 -0.44025353 0.06509238 0.20832276 -0.005489254 0.09742784 -0.5635771 -0.1859923 0.23991977 -0.11444471 -0.5397733 0.22317849 0.18029231 0.095784344 0.09775429 -0.25783324 -0.26285118 0.33869848 0.15587328 0.20446284 -0.19174986 0.25238442 0.5122353 -0.06287078 0.22245559 -0.18490057 -0.036502004 -0.30012697 0.30136728 0.20863333 -0.014042427 0.6465071 -0.18507355 -0.042393245 0.2160911 -0.25774902 0.4320076 0.16472955 -0.25354266 0.065041125 0.100981474
CwfeDdtVKcUEg_thGOlWAg -0.27852246 -0.085913055 0.14959832 -0.023542872 -0.09118656 -0.19857542 -0.21626207 0.052591607 -0.357517 0.019270478 -0.15267031 0.07565429 -0.2774414 0.20552026 0.21307938 0.18916388 0.07456167 -0.23766126 -0.0700724 0.9548259 -0.16445494 0.29244182 0.22468103 -0.14942609 -0.019454628 0.12856163 -0.36363605 0.17917715 0.004787062 -0.0877804 -0.43744093 -0.097073406 -0.28692842 -0.4181507 0.035658464 0.19140753 0.26850408 0.15137196 -0.13876468 -0.5457893 0.045309033 0.31023225 -0.10289075 -0.5354539 0.27629068 -0.055563107 0.054635637 -0.102619335 -0.31438914 -0.06499035 -0.27232167 -0.098111644 0.105013296 -0.1720507 -0.2732046 -0.41372287 -0.1415897 -0.054994244 -0.1627004 0.34933436 -0.041790865 0.3120862 -0.22113214 0.00023246332
oS96aJIHFWcFAlGHKKXjaw -0.22195442 0.085201114 -0.018794252 -0.124679394 0.35456568 -0.06697353 0.32780343 0.11914029 -0.014887776 -0.34805575 0.011765877 -0.19774245 0.04344135 0.35569397 0.08026122 0.14930768 -0.13492943 0.31283313 -0.52752703 0.14763746 0.46876353 0.35859358 -0.018998198 -0.32988328 0.20854206 0.14600061 -0.12085716 0.16980991 0.04703202 -0.12009266 -0.62553823 -0.09075431 0.24139252 -0.178316 0.27582836 -0.016165104 -0.45266566 -0.0859792 0.075152755 -0.12647435 -0.03893346 0.38299853 -0.090076454 -0.1778534 0.85875493 0.36426514 0.035016198 0.12655993 -0.029864551 0.12714334 -0.44813788 -0.07544011 0.29449856 0.20396487 0.21447799 0.0139638325 -0.53596735 -0.15010966 -0.4100153 0.28676572 -0.15512344 -0.18402879 -0.37329414 -0.46071854
d2ZQRjuizstCTnicysmpMQ 0.35681772 -0.17006494 -0.065943144 0.04874902 -0.32460678 -0.28051645 0.09467861 0.310484 0.07942429 -0.085613124 0.74345976 -0.41795224 -0.5406768 -0.4036129 0.2696809 0.37149802 -0.17708506 0.19244376 -0.03487406 0.33517966 0.09519186 -0.025714142 0.4917324 -0.5028548 -0.56763315 0.1457905 -0.1477172 0.18959814 0.046716847 0.05650309 0.0006825822 0.03499592 -0.29420298 -0.13432533 -0.121745735 0.16460651 -0.031084226 0.16300853 -0.06980028 0.16216221 -0.15424071 0.09695615 0.21150306 -0.47525188 0.1222433 -0.37179065 -0.03957759 -0.09833614 0.0020995573 -0.15148313 -0.27633888 0.11948382 0.29413408 -0.032880124 0.17340273 -0.3070419 0.25780845 -0.3187603 -0.07023344 0.06621127 0.03927287 -0.25134617 0.19537354 0.20190081
sc__kdcFV4IcNTfBx1707w -0.034233443 -0.1898346 0.24456124 0.13093933 -0.16899186 -0.102817036 0.68719745 0.06257744 -0.23615761 0.09925255 0.6920042 -0.09292662 0.008655916 0.10588277 -0.024470776 0.44533318 -0.32812497 0.07534555 -0.22975682 0.41846478 0.20890082 0.14095637 0.012467087 -0.12353459 0.22184707 -0.1571374 -0.38538325 0.05275459 -0.17838275 -0.46085355 -0.20343807 0.34286195 -0.29329363 -0.22032532 -0.08766339 -0.122508176 -0.1715461 0.16800466 0.17808409 0.28916168 0.18032369 -0.19871517 0.10926447 -0.08127461 0.3843553 0.03217651 -0.154889 0.10123218 -0.13502264 -0.08745269 -0.0211898 0.02898068 0.3542544 -0.29710308 0.40586892 0.2447175 -0.27515113 -0.1961361 0.041134365 0.1797312 -0.10650201 0.10686327 0.18379243 -0.13659252
wjLgM9Ybe5shoUPRrGMmsQ 0.06550727 0.041259687 -0.1230234 0.35758388 -0.21155228 0.07583173 -0.41064903 0.1504936 -0.2888152 0.12008702 0.25720266 -0.2684558 -0.48615524 0.12398816 0.34939918 0.24013513 -0.4587934 0.17350934 -0.11934745 0.5994988 0.12413532 -0.34653124 0.19139586 -0.11288752 0.1654838 -0.24393113 -0.0021307932 0.38209972 -0.29919827 -0.18232723 0.06511066 -0.23765686 0.1677935 -0.18301137 0.17860495 0.23574689 -0.067163706 0.17964785 0.011997815 -0.071349695 0.093947195 -0.3415015 0.103983775 0.130723 -0.20460567 -0.39937556 -0.42302117 -0.3224464 -0.17017904 0.38642305 -0.12884374 0.10602687 0.20763204 0.1432603 -0.17578487 -0.38310662 0.4986682 -0.12111986 0.20415151 0.338578 -0.63911295 0.20308347 -0.57420236 -0.123676606
1RECFIhw6tdiP4l3smu6Kw 0.16076079 -0.11475764 -0.47817376 0.16446063 -0.24431795 0.02999766 -0.053926967 -0.033654485 -0.6035797 -0.43899384 -0.37570953 -0.044279855 -0.118163034 -0.10729898 0.1866265 -0.042329542 0.19217776 0.22382186 -0.20706229 0.3588542 0.6229198 0.012383406 0.34863797 -0.3136398 0.24540542 0.5356538 -0.3708468 -0.017928194 0.45516148 -0.108616285 -0.039939117 0.24700657 -0.43103132 -0.6189492 0.1671265 0.28260866 -0.2182018 0.37100774 -0.38347465 0.06929476 0.27819613 0.092945136 -0.38668016 0.10410925 0.17864132 0.050911047 -0.3009141 -0.18661222 -0.106977716 -0.43545896 -0.13316934 -0.0074120457 0.00723875 0.20303196 -0.0015216192 0.1722484 -0.084544696 -0.17410481 0.03755484 0.12497783 0.5922027 0.11042855 0.084647186 0.07295296
lNVg4jtfTEIAtOkA_0aEPQ -0.10434253 -0.23196717 -0.09099131 0.14499491 0.19827989 -0.06854424 -0.18800204 0.482814 -0.44958746 -0.113036 -0.013033984 -0.1792933 -0.4446423 -0.23281239 0.48100814 0.12872574 0.020674363 -0.010070686 0.22887412 0.7269277 0.53663254 0.21020392 0.003821697 -0.24868312 0.19427915 -0.30331948 -0.36272314 0.32468954 0.33799568 0.19578615 -0.048290603 0.11150758 -0.18249755 -0.6703942 0.21595393 0.14074323 0.31451467 0.27453 -0.2681823 0.038523257 -0.34142366 -0.030362159 -0.060190152 0.070660904 0.30078125 0.09376574 -0.25969413 -0.14182171 -0.25014737 -0.2041905 0.07964461 0.10786219 -0.2956939 -0.07304288 0.1592993 0.1321245 -0.03985811 -0.29268527 0.2921127 0.2812186 0.23328444 -0.04196547 -0.002425542 0.0024321794
wY3dlpLa0BHfDENYAPYuZA 0.17091209 -0.38185808 -0.0026337723 0.6580683 -0.06393673 -0.076786675 0.39524543 0.18471491 -0.38949656 0.022867694 0.25237384 -0.31228453 -0.15301894 -0.19295755 0.03362399 -0.15071215 -0.5057732 -0.33536017 0.022761246 0.47901204 0.050276905 -0.094909206 0.19712399 -0.38216478 0.19586034 -0.025973095 0.1339937 0.40135992 0.11513111 -0.21139875 0.09709019 -0.09036437 -0.45409185 -0.2756157 -0.2596549 0.22637224 -0.19303316 -0.2072282 0.26043105 0.27464512 0.5094296 0.1372094 0.10405115 -0.38922235 0.31171528 -0.19847845 0.0029559906 -0.29510075 0.24438147 -0.42579073 -0.41368112 -0.05194441 0.07578843 0.24959712 0.10478228 0.20337999 0.19307052 -0.10542555 0.11729093 0.14890179 0.15210927 0.13445659 -0.12285408 0.06669697
0PCBt3JKD6IooicImKNBzA 0.15875871 0.06018039 -0.14587745 0.29792884 -0.25369713 0.0038784095 -0.07630252 -0.015390833 -0.26170114 0.055044033 0.10727467 0.04606285 -0.11686372 0.4375124 0.2829174 -0.24682328 -0.3606233 0.03947179 -0.10575423 0.7558214 -0.014925446 0.16560596 0.23356993 -0.41894895 0.3027605 0.14103366 0.35080975 -0.0151749225 -0.18848827 -0.087729715 -0.29244187 -0.19581252 -0.011651215 -0.40535513 0.21324752 0.02427385 0.12179842 0.05631608 0.086416334 0.3642551 -0.091687866 -0.2635639 0.14615943 0.014719344 -0.182679 -0.490534 0.09776186 0.020661991 0.13952821 0.36684605 0.0324804 0.8032225 0.67867583 -0.08161153 -0.49162367 -0.1476849 -0.36265722 0.055254716 -0.08822341 0.07879417 -0.6638829 -0.5001156 -0.10021327 -0.35944313
i39--wZD6L9hm9Lg90Uziw 0.33902144 -0.40436643 -0.18728942 0.48248926 -0.3781015 -0.40924487 0.42291218 0.025881307 -0.49124682 0.01103406 0.7284117 -0.15695603 0.3080983 0.10148341 -0.07962955 0.29248947 -0.27656817 0.076087974 0.17815463 0.52948076 0.30431113 -0.048548482 -0.2126736 -0.16449241 0.2633488 0.45383257 0.089817606 -0.16532855 -0.11601493 -0.32670644 0.17279506 0.2720089 -0.16368705 0.1348108 0.6107848 -0.0068180813 -0.11408281 -0.45532307 -0.22801585 -0.1000942 -0.1656931 0.31898028 -0.45373583 0.18729654 0.068137735 -0.13117242 -0.3723864 -0.032352656 -0.24295928 0.19526286 -0.462742 0.3647367 0.30002043 0.14060986 0.30315718 -0.3645461 -0.20930366 0.17568178 0.23564003 0.3469403 -0.03157989 -0.17045672 0.47473457 0.03450488
-7H-oXvCxJzuT42ky6Db0g -0.16757837 -0.38580358 -0.0057844887 0.19718188 0.40463644 -0.20178738 -0.13004966 0.07504271 -0.60012126 0.28609914 0.06476932 -0.5445041 -0.22834474 0.41054282 0.22715886 0.49810016 0.12946528 -0.35653389 -0.20895024 0.41149572 0.5588994 -0.11241951 -0.12322923 -0.30765682 0.13382903 -0.3452321 0.3126853 -0.022598043 0.16382007 0.37540427 -0.036702126 0.2824414 0.17395858 -0.047685917 0.08686873 -0.09056482 -0.1899176 0.029291969 -0.03712894 -0.26643237 0.110746026 -0.23362765 0.1580153 -0.24749827 0.25835335 0.03694738 -0.41690996 0.03540924 0.019082379 0.2645703 -0.46751076 0.0032893964 0.41142353 0.62394863 0.12827541 0.07132184 -0.06523814 -0.28087536 -0.22154751 0.23776922 -0.10165488 -0.054412104 -0.71169996 0.13602191
dQj5DLZjeDK3KFysh1SYOQ 0.24605086 0.16880926 -0.29332083 0.47359136 0.27884522 0.08844365 0.2979929 -0.24341042 0.28828436 -0.09507217 0.031211318 0.010171512 -0.41815057 0.16083983 0.25817597 0.40847957 -0.3300243 0.22898895 -0.13946868 0.22977504 -0.018689742 -0.1336555 0.07555191 -0.23371933 -0.09643196 -0.045092918 -0.35432866 0.64145666 -0.20193323 -0.09306909 -0.278522 -0.4839483 -0.061486036 -0.16158748 0.48139387 -0.18201528 -0.12103703 0.13039908 -0.53466576 0.34342986 0.07418404 -0.050375436 0.06934991 0.25261074 0.68683827 0.26969618 -0.066109635 -0.42706198 -0.29522976 0.020004762 -0.76206666 0.5132802 0.16740559 -0.16141614 0.11671479 -0.16681467 -0.11599943 -0.2578659 0.3809487 0.0790718 -0.23927532 -0.033986773 0.22743218 -0.08637311
MwjZPmEoWlHy1rp7qrmBsw 0.12987868 -0.31506628 0.23213245 -0.02916249 -0.06345303 0.10344464 -0.42762604 -0.08853506 0.0314429 -0.3922831 0.28442037 0.3088248 -0.23997562 0.17179398 0.40880767 0.1505733 0.2511993 0.011179237 -0.0009559621 0.60841066 0.3094548 -0.09980411 -0.25868818 -0.42705536 -0.0982402 -0.19581896 0.00016612314 -0.4213716 -0.29546803 0.2900828 0.10320856 0.039930522 0.003360033 -0.4292698 0.12048565 0.1150199 -0.17227598 0.4125597 -0.33882326 0.1751904 0.24595214 -0.5467401 0.007841121 -0.33046374 0.49408585 -0.23520993 -0.4329851 0.048632998 0.27146626 0.28837886 -0.31706473 0.11661379 0.31262264 0.37098816 -0.2373131 -0.27679953 0.0935421 -0.13882315 0.09919692 -0.15821318 0.12457523 -0.06549619 -0.32835957 -0.45830125
PU-CSnMYXizOS3uhr316eg -0.31918162 0.090118885 0.1912694 0.028786726 -0.09395986 -0.06691303 0.76410043 0.015482905 -0.15524465 0.057349868 0.24251883 0.17423187 0.2299431 -0.050909914 0.45884094 0.030931044 0.03920664 0.28141826 -0.2483049 0.59799147 0.06363339 0.17988811 0.1563314 -0.29969612 0.2424816 -0.37889358 -0.41872394 0.07118236 -0.0021915815 -0.34546113 -0.26295596 -0.030320767 0.05340853 -0.4431204 0.11244389 -0.0039945445 -0.026763272 -0.16639498 -0.2604529 0.13905399 -0.16564564 -0.13473651 -0.23124371 -0.33388382 0.42838788 0.3178647 -0.062167272 -0.1697487 -0.20356898 0.2833459 0.22078408 0.2729798 0.466067 0.26825026 0.6275585 0.43528643 0.127776 -0.27868912 -0.32909375 0.45903292 0.04834236 -0.26665872 0.12244275 0.13507883
GGEeGKUez_pGqYXtk-sKvQ -0.06597758 -0.12434351 0.041263446 -0.06832391 0.040429678 -0.14277762 0.267594 -0.32666168 -0.6906966 0.051673837 0.24754633 0.15361995 -0.68923503 0.07522328 0.15177432 0.13214955 -0.2675156 0.3039131 0.18797004 0.45518437 0.06427807 0.054884624 -0.16146225 -0.43532658 0.2135986 0.39032447 0.3385527 -0.0036819195 0.031390402 -0.18112014 -0.004916904 -0.20750022 -0.12860177 0.10096489 0.104982086 -0.039470725 0.33051205 0.08169181 -0.008419668 -0.39530483 0.14406334 0.55112237 -0.30756447 0.4674626 0.25376034 -0.122318216 -0.48253414 0.1656678 -0.3810974 0.25448227 0.04877409 0.39347383 0.8950954 0.33743614 0.32568637 -0.14843306 0.32274932 0.0019274867 0.19368279 0.5946732 -0.190936 0.03435995 -0.11032517 0.05675918
RThuRlhMdowhtY8vITEIzQ 0.11324732 -0.24853657 -0.0631341 0.26963806 -0.1573793 -0.27640703 0.35968742 -0.23000325 0.15081573 0.53445977 -0.05165937 -0.3388249 -0.25773272 -0.4086794 0.28357437 0.5934607 0.014537991 0.17102206 -0.10546362 0.28589678 0.45845228 0.13336006 0.30316785 -0.57071817 -0.4998265 0.32204235 -0.35082027 0.029997284 0.20881054 -0.5857609 -0.38904026 -0.5592186 -0.2168328 -0.3861768 -0.19940162 0.46147472 -0.09992979 0.23665509 0.032232977 0.15678543 -0.4014537 0.16309847 -0.09521356 -0.14959235 -0.045681905 -0.35162762 -0.24559449 0.19453187 -0.72007316 -0.09682524 -0.3771151 -0.1630483 -0.01641361 0.16508965 -0.05478625 0.16706677 0.2439374 0.19154276 0.37276438 0.043789975 0.10496255 -0.4632121 -0.09270297 0.17738104
sz6_gKcHjtcpWKIZLXV85w -0.15272033 -0.29118317 -0.17908996 -0.17221735 0.0031906636 0.1203065 0.25099915 -0.30754504 -0.03205573 0.0056271856 0.39534312 -0.29393432 -0.58881944 0.16952293 -0.21730213 -0.23207632 0.05209307 0.54492676 -0.23969647 0.25135496 0.019275727 0.008775896 -0.2973453 -0.76044 -0.11464986 0.29666167 0.06259036 0.58005804 0.13522737 -0.1550554 -0.13589716 0.012375512 -0.38658395 -0.46865 0.009661259 -0.12179763 -0.10242825 -0.27228278 -0.4915844 0.07415204 -0.26150626 0.004370126 -0.19141893 -0.07774628 0.21462551 -0.07569202 0.0474521 -0.28872252 0.04748714 -0.17326643 0.12048152 0.29166588 0.20428759 0.27405405 0.5163778 0.054605152 0.44571587 -0.24172376 -0.3270354 -0.12166903 0.12009153 -0.054446604 -0.3358842 -0.008836052
wKlH90YB5RYFvJ8N3pstVw -0.050731912 -0.36244527 -0.35867774 0.067988925 -0.6327528 -0.08943491 -0.582599 -0.5397616 -0.2330949 -0.13104205 0.22831886 -0.14805564 -0.17679635 0.421221 -0.052437212 -0.1192886 -0.30427638 -0.13398248 0.09813405 0.77492785 0.3329842 0.2293756 -0.19078088 -0.2684248 0.08086322 -0.14684092 0.18461429 0.17609207 -0.2996713 0.098133676 0.10355187 -0.089276575 0.15875769 -0.5014889 0.011286821 0.30806702 0.10815575 -0.021963602 -0.47718167 0.3342353 0.15862867 0.10135519 0.31618527 -0.45803902 -0.09884667 -0.22025487 -0.23973906 -0.1915105 0.1283176 0.042890273 0.3201141 0.23457028 0.35613197 0.097118646 -0.040877342 -0.19773233 0.008880037 -0.26463017 0.017439261 0.48460713 -0.022982618 -0.23849519 -0.2713195 -0.41736624
rBko32y5vK13SD_sW3AG_g 0.021025043 -0.37673822 0.07159918 0.47169644 0.11587533 0.01664446 0.07676456 -0.052009664 -0.24773552 0.10963905 0.37420088 0.015852401 -0.522965 -0.32056215 0.30600724 -0.15950036 0.03143676 -0.06217898 0.16838175 0.21261911 -0.579053 0.02349748 -0.13215041 -0.39914808 0.45582753 0.72112876 -0.27296296 -0.34471083 0.629387 -0.28252873 -0.2988583 -0.275696 -0.27911025 -0.6983655 -0.25568885 0.62605476 0.12816548 -0.3547556 -0.45603126 -0.11100032 0.03416272 0.17267616 -0.020340282 -0.20081131 0.08609175 -0.40605894 0.22822513 -0.015145962 0.13848287 -0.14272588 -0.17256281 -0.07161888 0.14252444 0.37963262 0.16302253 0.029219411 0.21221621 0.07356988 -0.12695935 -0.0923532 -0.3068918 -0.019580191 -0.09046046 0.0501383
ZARPISrzPW6PrMSwexHnxw 0.11118808 -0.5653232 -0.19029847 0.11233497 -0.10969539 0.5688746 0.32820228 -0.1466631 -0.38495767 -0.008868618 -0.21320593 0.2639772 0.2074686 -0.118124545 0.003695441 -0.22692023 -0.016848521 -0.13412318 -0.10188871 0.41756406 0.022352407 0.2369076 0.578729 -0.5014308 0.23760311 0.0841895 -0.37791976 -0.095722966 0.086328566 -0.07852241 0.21886878 -0.34140703 -0.046252668 -0.7183381 0.094355285 0.11418254 -0.07554069 0.11526466 -0.18074223 0.1342604 0.35412118 -0.091974035 -0.24207196 -0.06004599 0.33375043 -0.16352391 0.0016544987 -0.17777318 0.20448317 0.28133276 -0.045225345 0.022644188 0.52920043 -0.097451456 -0.02294218 0.20413189 -0.28418562 -0.21680075 -0.21661647 0.66760856 0.018190324 0.4493569 0.0048591453 0.09641168
1qYCUtw6_ehv7u_FxiE8IA 0.22443362 -0.61233324 0.030532904 0.42653993 0.21767855 -0.09895117 -0.64855707 -0.1240892 -0.54148245 0.24619833 0.28065822 -0.0104699 0.08268901 0.19468562 -0.12180646 -0.3376792 -0.044541102 -0.22134107 0.12659432 0.5307991 0.40463236 -0.00044728167 -0.3032392 -0.3737332 -0.34600437 -0.15349312 0.07372388 -0.512042 -0.24599132 -0.23356584 -0.0557207 -0.2415147 0.01896279 -0.13183202 0.14821945 -0.064793475 0.013443373 0.56179845 0.06851115 0.22805956 -0.32998043 0.08112777 0.03447333 -0.024087813 0.2312623 -0.07604163 -0.4703089 -0.075109296 0.051758766 0.5847015 0.19783154 -0.027445579 0.5616792 0.16736153 0.13104098 -0.39546975 -0.03486902 -0.7255023 0.07655066 0.20586284 -0.38355964 0.18291567 -0.30912417 0.05629709
3GuqcEYaF1d1WXcwOX5xPw 0.15091293 -0.15391952 -0.06354262 0.3973986 -0.06827136 0.09651654 -0.47103143 0.22998415 -0.25378752 0.4774601 0.15744345 0.07892793 -0.4296427 0.2941443 0.43779764 -0.31386185 -0.107456006 -0.063757345 -0.4789303 0.45631817 0.35152814 -0.29245254 -0.0718016 -0.21676771 0.122201815 -0.008159097 -0.11198944 0.0069062216 0.40097788 -0.015600837 0.24803253 0.18865792 0.30000907 -0.88995415 0.29536444 -0.20366587 -0.51606125 -0.035244934 -0.22018301 0.15543206 -0.29909065 -0.26627713 0.4496109 -0.14391392 -0.12504086 -0.11131811 -0.3069297 -0.35158744 -0.6641031 0.13224411 -0.225186 0.011629414 0.23894802 0.103106745 -0.28430882 0.2688116 0.2644415 0.061885554 0.14549503 0.35417277 -0.22144783 0.00512967 -0.508295 -0.47130802
rBnpbR-cfCD9CKy_ahCmsg 0.39998728 0.17097755 0.017538138 0.26560423 0.43385747 -0.3200536 0.16566329 -0.23295334 -0.07003669 -0.3124983 -0.029497879 -0.14601873 -0.47751433 0.16006933 0.2091603 0.18690775 -0.4075741 0.58504087 -0.14311212 0.35140878 0.3572649 0.04193403 -0.2511178 -0.43282616 0.05739155 0.3560763 -0.04730465 0.10743837 -0.13669848 -0.027696103 0.063161016 0.35132414 -0.24731734 0.18416812 0.10667417 0.03647051 -0.18318988 -0.18488713 -0.15881807 0.570588 0.22156435 0.12990297 0.08163353 -0.32616255 0.26519662 0.5336791 -0.2767572 0.23120645 -0.2404688 -0.23657022 0.04617573 0.45382303 0.65895456 -0.16020483 0.3294844 0.0978877 -0.14266546 0.24507809 -0.516387 0.37437773 -0.5143492 -0.29959795 -0.012222052 0.12993859
rwDJu_c584TV4CqPAwu3ZQ -0.11653461 0.12957546 -0.17344433 -0.123131104 -0.4697901 -0.70280546 -0.07878661 -1.7015884e-05 -0.34888652 0.06869543 0.5679282 -0.034099195 -0.08260559 -0.14966358 0.06606651 0.28100827 -0.07247049 0.23402882 -0.3796347 0.26859197 0.0019077358 0.24730627 -0.12918793 -0.23438059 -0.30881628 0.41845667 -0.16989733 0.018253544 0.14520048 -0.2653961 0.024309088 -0.05681912 -0.13061056 -0.49039432 -0.24766237 0.08398984 -0.29925296 0.11230435 -0.32021815 -0.0887054 -0.044432383 0.041034773 -0.17916867 -0.16314961 0.42381197 0.25405547 0.37308294 0.17439133 -0.001801179 -0.13252915 -0.37708786 0.39479044 -0.017214507 0.39118597 0.3932875 0.025746105 0.16304718 0.1123146 -0.30576512 0.38877445 0.24808556 0.12994263 -0.1644679 0.088110335
l1JDX-o0wCLykuh78R8Kng 0.40313417 0.17845383 0.30669674 0.45837754 0.35100392 -0.46790576 0.17005767 -0.134952 -0.02756467 -0.5413869 0.55904824 0.07235051 -0.6075299 -0.1783887 -0.08496258 0.63779163 0.094434865 -0.23722838 0.034682054 0.16139199 0.09462808 -0.11627917 0.35025468 -0.542499 -0.2018699 0.10332556 -0.056567572 0.24487866 0.47666427 -0.013017021 -0.14317077 -0.121576905 -0.11759165 -0.34539586 0.045818865 -0.23261353 -0.05605084 0.36525568 -0.17908083 0.08716698 0.6265706 -0.023416556 0.20053978 -0.066797726 0.032197587 0.11042961 -0.06466292 -0.050760355 -0.32083035 -0.06389405 -0.40529084 0.34792137 0.097181305 0.37190628 -0.059441525 0.12844105 0.17084338 -0.31044012 0.11692066 0.29378748 0.008486177 -0.38766912 -0.20888822 0.09577699
7z2x16M7IuG8KPfMsyVrKA 0.47625408 -0.029669138 -0.1540847 0.30057794 0.1352102 -0.07603949 0.34252313 -0.17358582 -0.017961364 -0.39965373 0.13069247 -0.42068812 -0.4482369 0.0771681 -0.11542154 0.109588094 -0.48654634 0.28270072 -0.13568807 0.3400875 -0.35322455 0.21202584 -0.1433359 -0.123895854 0.04156628 -0.011032909 -0.31077468 0.45789894 -0.029885203 -0.33001563 -0.25718164 0.04259886 -0.2046924 -0.37059134 0.5159351 -0.14033204 0.083919354 0.10090112 -0.29618257 -0.013261522 0.055855017 -0.13112836 0.3730279 0.04385181 0.4475264 0.24502946 -0.40240338 -0.16231604 0.52898985 -0.12059202 -0.5349673 0.2523406 -0.120402716 -0.07394282 0.41939637 0.09912394 0.112254426 -0.45850378 0.06748388 0.27828878 -0.38710397 0.111535616 -0.089072034 -0.3248696
yZ_wpRr4Svw8YRZ9voCgIw -0.00990296 0.029499864 -0.119195744 -0.004309312 0.021826882 0.12538692 0.0017088222 0.28076762 0.06953423 0.042110365 0.79681885 -0.46925145 -0.2936922 -0.41236767 -0.0036208725 0.6518989 -0.08983995 -0.04382178 -0.005994904 0.1868778 0.30481917 0.26665485 0.4198784 -0.33807868 -0.18463951 0.45001706 -0.25899148 0.34551364 0.08172895 -0.25548846 0.02421993 -0.5269099 0.028962275 -0.1747776 -0.0052247094 -0.10378149 0.09198822 0.27620873 -0.24122994 -0.029270895 0.13257289 -0.24758378 0.16416675 -0.21249275 0.23315553 0.10669637 0.052133624 0.005881525 -0.31086358 0.2382565 -0.22762121 0.3857497 0.27543798 0.11256282 0.33014116 -0.043335095 0.21482222 -0.035716053 -0.3366806 0.13469656 -0.2991909 -0.10036961 -0.2603704 -0.13237649
ckbDWYPT8TP7etP0WHU2Yg -0.20397814 0.123239145 -0.24970737 0.1998594 -0.70850974 -0.6958299 0.16145879 0.1013984 -0.22257805 -0.05112098 0.20612605 -0.036020003 -0.2446861 -0.17667301 0.2915458 0.30936542 -0.21885505 0.17365201 -0.37837 0.16359249 0.2946018 -0.26184714 0.35387245 -0.48766607 -0.0967989 0.25876874 -0.05048984 0.40485162 -0.01567037 -0.6851618 0.6310603 0.20288222 -0.07684006 0.15172404 0.21769969 0.6902634 0.2008179 0.39669704 -0.18080884 0.115711115 0.10463286 0.28125954 -0.61700517 0.05363973 0.26633522 -0.31635433 -0.15390468 0.18027492 0.04686068 -0.218283 0.07226346 0.30539465 0.054776393 0.836946 -0.047648 0.022392366 -0.19272125 -0.30347574 -0.40229994 -0.048014976 -0.060894206 -0.0072103334 0.18589419 0.05963076
-8F04F54iDT6VgWPCgybug 0.14359903 -0.1765671 -0.10077359 -0.23438694 0.24241537 0.3122193 -0.13913216 0.16056399 -0.425727 -0.120751835 0.20322138 0.27662432 -0.7286831 -0.5110563 0.12063412 -0.048272777 -0.17047653 -0.06921436 0.49748138 0.40810284 -0.013127378 0.021740861 0.22694755 -0.4564429 0.0593326 0.2121382 -0.18055926 0.36972862 -0.39576802 -0.22653791 -0.5208005 0.06475525 -0.34409797 -0.6339858 -0.20312151 0.27782393 -0.08482137 0.17399123 -0.22886415 -0.17292927 -0.06990097 0.10539333 -0.30366808 -0.08205229 0.57846737 -0.22619349 0.31782478 0.17521942 -0.10335226 -0.19316137 0.08192148 -0.023858303 -0.17340143 0.09708294 0.11416786 -0.034601483 0.2618047 -0.16049246 -0.04748776 -0.030181663 -0.34297758 -0.3506912 -0.34641063 0.08769882
VpsXhgaBA7-65Gt2zg8Nkg -0.11424423 -0.038103 -0.30835518 0.44855505 -0.43971366 0.09742684 -0.2411745 0.10854819 -0.30876973 -0.30703583 -0.24361654 -0.3707472 0.33875757 -0.47190762 0.16815026 0.054615114 -0.12082146 0.03950953 -0.33171824 0.78701186 -0.114532396 -0.08140443 -0.120317616 -0.37984386 0.06983022 0.6715306 0.042494994 -0.06568138 0.16921625 -0.3675778 0.5690822 -0.21004635 -0.24408352 -0.15434246 0.092081815 0.0811532 -0.06651458 -0.004138119 0.34137398 0.47213838 -0.1612672 -0.14344627 -0.46580952 -0.049814746 0.3392919 -0.25963902 -0.5907531 0.23669478 0.25306606 -0.36744648 -0.09180718 -0.054302018 0.062472194 0.26738012 0.0037154506 -0.25000247 0.09010468 -0.5757705 -0.14642628 0.3123647 -0.16516982 0.15914151 0.17112054 0.13953975
ymsa3ReIbctz4IFmPUgWDA 0.35919052 -0.46885723 -0.2813993 0.6301509 -0.14283068 0.008861723 -0.18327442 -0.09935755 -0.25592571 -0.5744518 -0.13576804 0.06252826 -0.5554725 -0.60687804 0.11106955 0.24313706 -0.11795931 -0.527407 -0.091119684 0.24890728 0.41153952 0.24161072 0.013879813 -0.0639014 0.10751786 0.20467879 -0.35244596 -0.047909394 -0.41135564 -0.3524354 -0.20586477 -0.034193154 0.1286969 -0.55335945 -0.06739694 0.46943456 -0.22773185 -0.07244197 0.09693644 0.0013090001 0.1856893 -0.1967848 -0.06203479 0.011112381 0.06302611 -0.59335893 0.18517223 0.02301151 -0.26902947 -0.008659743 -0.21422686 0.23925883 0.20340292 -0.12972157 -0.10396748 -0.06767692 -0.29007107 -0.15048286 0.12793371 0.4651708 0.13059522 -0.1563889 -0.21436489 0.16627987
uO_OX2DXmzo2c72YpbXe1A -0.06013187 0.44410735 0.00549702 0.54760325 0.06457315 0.011574037 0.0024247286 -0.2610181 -0.2647498 -0.12597366 0.08263354 -0.08556731 -0.40585336 0.45949674 0.2640739 0.16712426 -0.5842134 0.13494712 0.14143053 0.14760672 0.05420688 -0.115139425 -0.41334084 -0.48315826 0.16584267 0.20530513 0.012835092 0.29771838 0.16791855 -0.104724236 -0.4531126 0.16636628 -0.09031501 -0.09937444 0.2013733 -0.23548582 -0.08056157 0.044761255 -0.17326899 0.07824281 0.11523827 0.5116195 0.059905775 0.11655477 0.73735887 -0.019601827 0.6163735 0.061510798 -0.20759213 -0.04582047 -0.33391252 0.15241104 -0.13399424 0.2816308 0.4330923 -0.27934507 0.08368228 -0.47373068 -0.029038327 0.44186893 -0.18534084 0.34899628 0.1803643 -0.09635463
TFdLM8R_7Pf1xVeBNKl0hg -0.07059574 -0.35480994 0.20658699 -0.009766608 -0.070432365 -0.55513126 -0.24919507 0.007988231 -0.01113258 -0.47749898 0.26626214 0.076946884 -0.32485273 0.27388507 0.03094273 0.27244166 -0.013889834 -0.18080957 -0.15487494 0.5377125 -0.35526395 0.3143452 0.086846516 -0.2904438 -0.24697421 0.31166083 -0.61125356 0.35378987 -0.10278441 -0.39003393 0.07067864 -0.10884226 0.35520804 -0.36885622 -0.24778561 0.13341537 0.29235575 -0.03648806 -0.40956986 -0.06401506 -0.019800995 -0.19763081 -0.21879202 -0.100660086 0.25955665 0.27405077 -0.041774277 0.09026737 -0.124636754 -0.41179422 -0.42280585 0.14780556 0.1163447 0.06232992 0.1531769 -0.12107059 0.23649345 -0.034139477 -0.12226488 0.25156558 -0.28667232 -0.049364474 -0.2414373 0.080342226
pHDLRIG2Xu1_1mkGAbyEmw -0.0017164574 -0.36600843 -0.32150805 0.30464384 0.32251352 -0.082617655 -0.18336691 -0.07756788 -0.35235804 -0.086441934 -0.3455011 -0.24635881 0.18058276 -0.3301327 0.00048670176 0.2702647 0.15979423 0.19390556 -0.39209208 0.73781693 -0.2252142 -0.18444423 0.337285 -0.5012232 -0.17996125 0.9130142 -0.4639063 0.012592921 -0.18654656 0.023236025 -0.6118961 0.1407327 -0.25098625 -0.26833424 -0.4745296 -0.08208542 0.0538279 0.44794548 0.45672813 -0.45636168 -0.14722453 -0.057288896 -0.0121367555 -0.31161422 0.3389832 -0.16346501 -0.10963243 -0.021570984 0.032964155 -0.09102041 -0.007935997 0.05137938 0.13581435 0.38865796 -0.03310987 -0.17583331 -0.17977189 -0.07551566 -0.2183718 0.2013112 -0.12048208 0.3824351 0.14076558 -0.13723765
SvCjBtbN1cKElDKPTw9dOA -0.032567132 -0.20078573 0.24359755 -0.17936161 -0.21976845 -0.19112691 0.053187728 0.010072647 -0.23120569 -0.17541608 0.5058347 0.12362532 0.04650939 -0.1882843 -0.074660644 -0.15096545 0.07005465 0.1876955 -0.09688402 0.75613916 0.21218729 0.38761055 0.48245966 -0.3406444 -0.24332576 0.32149738 -0.23315609 0.13429518 0.07428603 -0.18940455 -0.2016112 0.3940752 -0.29853383 -0.5621453 -0.05298011 0.08185821 -0.17935736 0.15288818 -0.35197693 -0.028933903 -0.15601645 0.15441768 0.39325067 -0.4022396 -0.07443756 -0.54321617 -0.24614526 0.33828497 -0.14697616 0.3586565 0.044266228 -0.35222387 0.02049969 0.33051553 0.098988004 -0.035686236 -0.32668906 -0.42972815 -0.24858743 0.3609311 0.047775824 -0.27379367 -0.10412199 0.2065132
SHlfx41Mo4dk2WR1VyT2_Q -0.234255 -0.14762634 -0.039288163 0.19179021 -0.24029219 0.23243827 0.093154974 -0.3329446 0.16634716 -0.09578356 -0.35560378 -0.121754155 -0.17601861 -0.2978822 0.2896871 0.4694602 0.19301458 0.035942532 -0.14578177 0.7014838 0.6307902 0.0043126573 0.13177654 -0.34939173 0.13031566 0.39152163 -0.2926073 0.11213121 -0.12659767 -0.08613081 -0.1507558 0.0604624 0.37277445 -0.78124756 0.09552545 0.19471386 -0.1306288 -0.14335579 0.5767599 0.009523674 0.006605487 -0.078349546 -0.3196298 -0.4300951 -0.24956234 0.16106267 0.3081428 -0.05619293 -0.16049427 -0.1460817 -0.24295306 0.23375244 0.16139342 -0.16366538 -0.15791932 -0.31327152 -0.3262118 -0.44234586 0.060316492 0.042373806 -0.2589716 0.22980288 -0.16895555 0.28142333
2jqUYcKMYZXnpxNTkORJgQ -0.014513689 -0.09943263 0.18497854 0.41559365 0.011733193 0.19966078 0.0108983 0.06439754 -0.53187275 0.121732526 0.2090906 -0.15210184 -0.029751265 0.13257217 0.17488386 0.020427467 -0.014569444 -0.018168423 -0.1623282 0.310898 0.31638098 0.031272493 0.07341854 -0.23813379 0.4469017 -0.3108281 -0.0263718 -0.49965748 0.1257232 -0.019953594 -0.065980166 0.06539066 -0.01894266 -0.3848414 -0.05252087 0.18146716 -0.10029014 -0.039076593 0.123890094 -0.040501166 -0.0022163598 -0.482583 -0.19991292 -0.14933667 0.12379173 -0.49674857 -0.3733458 -0.42523897 0.020956181 0.18038203 -0.15545374 -0.2799838 0.6005776 0.5247958 0.33842427 -0.1067078 -0.16940907 -0.22029583 -0.25629976 0.16506436 -0.17213374 -0.0075182235 -0.6335981 -0.7273007
HG3ROmv3FJZTMJPpThSXOw 0.3563986 0.22584124 -0.04533842 -0.13009177 -0.043455526 -0.30905643 -0.031812415 0.17424631 -0.24230115 -0.21853541 -0.06319903 -0.12641226 -0.096867636 0.5097375 0.10184188 0.38719118 -0.15317771 0.12577346 0.17129499 0.4439164 -0.19938606 0.3829286 -0.19661349 -0.5629456 -0.40192288 0.1357694 -0.013511826 -0.43901947 0.11303727 0.10774656 -0.10507041 0.7476953 0.03610454 -0.5107636 0.003069728 0.17834505 -0.21710505 0.26769266 -0.07188703 0.42608416 -0.38256606 -0.34092933 0.39739627 -0.5013967 0.22197393 -0.28684986 -0.38465822 -0.17375149 0.24721347 0.12648739 -0.02078964 -0.03407706 -0.05254229 0.2948082 -0.1532447 0.014488823 0.21689498 -0.6323245 0.37930024 0.19874384 0.26706383 0.12621246 -0.11827931 -0.37287334
lPcKVCwnnx54lJR5BXFbKQ 0.5122807 -0.33045715 -0.16577835 0.16317424 0.14648695 -0.017460117 0.049128417 0.08603157 -0.4321605 -0.13119969 -0.11338126 -0.28645134 -0.4061005 0.42027065 0.28429237 0.10493735 0.29986987 -0.299969 -0.13024569 0.58243936 0.54523534 0.14250202 0.10464084 -0.5301632 0.044217225 -0.11954339 -0.21422711 -0.34624887 -0.1539104 0.019590622 0.20350623 -0.25386602 -0.02168487 -0.033515412 0.26735243 -0.12269134 -0.49460495 0.16471039 -0.19371837 -0.108300306 -0.062218353 -0.47584668 0.11137143 -0.10326978 -0.03649117 -0.39473367 0.016367707 -0.37944654 0.04437369 0.126641 -0.066915825 0.25366154 0.4815236 0.38801247 -0.19426695 -0.14242491 0.21324243 -0.70390534 0.011142467 0.04414641 0.11117964 0.5336173 -0.09872488 -0.20705514
aY8xiGLpTjIkz6FAJbCy7A 0.054619662 -0.3287798 -0.053666126 0.3424148 0.17941499 -0.059317153 -0.24949099 0.092020735 -0.16511737 -0.1905774 0.22109862 -0.18398412 -0.035666175 0.24744564 0.41768643 0.36825168 0.02849645 -0.28621536 0.35252756 0.5962051 -0.08275924 0.41780156 0.10281986 -0.34548202 -0.22514306 0.15667315 0.30651072 -0.22063802 0.18174735 -0.12010419 -0.3266988 0.35379863 0.30616242 -0.43586794 0.074191384 0.041255545 -0.4317573 -0.3541993 0.16616672 0.79236484 -0.1643969 -0.76880956 -0.19694448 0.3441698 0.26264566 -0.1877211 -0.43493137 -0.30745676 -0.087559335 -0.017686095 0.057197534 -0.20355791 0.028224206 -0.062360212 -0.27474326 -0.08323592 0.047459304 -0.13500944 -0.13826258 0.067348115 -0.14290565 0.27007765 -0.2651713 -0.3055703
OQvChaBImI8X5B3aai8btg 0.108698145 -0.35138386 -0.12178664 0.31331477 0.1533187 -0.071716845 -0.4946416 0.17037404 -0.58778775 0.47984523 0.11348516 -0.22426262 -0.018512141 0.3178627 -0.06814045 0.1530403 0.06829291 -0.01820028 -0.31143245 0.061450776 0.08288246 -0.3169367 0.3657103 -0.43536797 0.15632719 0.11945796 -0.06400882 0.0036588938 0.03357679 -0.3395895 -0.52409375 -0.060539607 0.48099202 -0.3413518 0.020136513 -0.09248917 -0.1005518 0.08094634 -0.47775614 0.46414378 -0.14598338 -0.5672872 -0.19088186 -0.29691336 -0.40027195 -0.091128476 -0.4754085 0.1869218 0.11384169 -0.27410606 -0.21788663 0.09935754 -0.19920966 0.122255 0.30682734 0.19131187 0.0656924 -0.17125735 -0.03083365 0.3319142 -0.1695608 -0.19957492 -0.534529 -0.47676146
FG8atOE15c8IoQH_hEb9zA 0.1816427 -0.05685076 -0.23872818 -0.08702219 -0.12155189 0.09482007 -0.4114732 0.046494793 0.1049137 0.36738688 0.53014654 -0.6233861 0.021774713 0.05505168 -0.011288266 0.11846828 -0.438054 0.40352973 -0.08384363 0.470335 0.39448482 -0.27948958 0.15250525 -0.3424603 0.21762814 -0.41346347 -0.32972834 0.3308327 0.25553837 -0.03937908 -0.03785351 0.28079396 0.32319787 -0.29458672 0.15420963 -0.0030480223 -0.13723703 -0.044567328 -0.17160615 -0.06806566 0.435088 -0.30045342 0.25366563 0.0067852633 0.009449672 -0.40232256 -0.22622669 0.0072298152 -0.04827689 0.49129328 -0.37195584 -0.016581975 0.11352717 0.3893081 -0.2725844 0.07658154 0.46770263 -0.67092925 0.1862227 0.3183127 -0.23954648 0.07443693 -0.5519508 -0.68346965
MEyguHG-U-Fy1qkK_Yf_FQ -0.08008883 -0.025030836 -0.23274721 -0.003931853 0.47522065 0.35477072 -0.22171448 -0.2980378 -0.19189803 -0.26026452 0.45786065 -0.41240984 0.07291657 0.18372685 0.5013337 -0.0834444 0.4184151 -0.40939716 -0.36827508 0.6314773 0.31094617 0.20749237 0.045273226 -0.37084663 -0.007715298 0.12635928 -0.17081134 -0.26289365 -0.2900814 0.040002253 0.01933848 -0.078345045 -0.21615537 -0.40599462 0.35844314 0.63220876 -0.35279152 0.026942419 -0.37417164 0.26530546 -0.18249801 -0.47427574 -0.29930714 -0.12800793 0.13478355 -0.23506209 -0.3142083 -0.31931737 0.337557 -0.311951 0.08169728 0.4367929 0.22638959 -0.029541653 -0.3269995 -0.26858667 0.48609462 0.19122842 -0.11039751 -0.43911546 -0.15572096 0.13737033 -0.013258207 0.12098511
Iam7tYWhssw_rscSBkeRIQ -0.28015172 -0.29084495 -0.12295349 0.021116145 0.34914458 -0.5369624 -0.041441295 0.16593212 -0.08538271 0.39037684 0.42691502 -0.16606945 -0.06433373 -0.25458384 -0.16682573 0.07357514 -0.49790213 0.33633962 -0.6045386 0.12544665 -0.11497386 0.25153342 0.1453721 -0.5797805 -0.07650302 0.029265705 0.07853382 0.15753214 -0.023619363 -0.23919408 -0.20864064 0.06037764 -0.33336836 0.041603405 0.10607284 0.6065826 -0.06897085 -0.05578408 -0.2644659 0.34349626 0.36495087 0.06965612 -0.37927684 -0.02007179 0.21084215 0.072280526 -0.51241267 0.41035628 -0.3839149 0.46359795 0.017372191 0.5343323 -0.41338333 -0.18782297 0.47674224 0.020588234 -0.20743829 -0.2428085 0.19810817 0.29472998 0.10595021 -0.22029015 -0.20455265 0.29175928
e2ng0CQ69anIawqIKzhtlg -0.08181443 -0.026998043 -0.17255385 0.53539693 0.25941756 0.09308159 -0.082041204 -0.004845847 -0.40337867 -0.439744 -0.36336634 -0.38727486 -0.2717378 -0.5020867 0.062043965 0.21632324 0.08278153 0.21095292 0.34899995 0.3473257 0.108948894 -0.14244957 -0.06353424 -0.6878003 0.50517803 0.6077979 -0.37796456 0.22832175 -0.050206617 0.13166532 -0.2878735 0.18542516 -0.110469304 -0.2556969 -0.020893082 -0.056300763 0.18001738 -0.027078167 -0.016750539 -0.12849227 0.29957342 -0.34607828 0.36653277 -0.37284124 0.27440932 0.017506905 -0.12176306 0.113139 -0.176855 0.10308735 -0.09549382 0.2137021 0.36132297 0.28495505 0.027665192 -0.1571291 -0.34765235 -0.37806514 0.14250112 0.09915833 -0.06917115 0.34448585 0.1735441 -0.30000478
XNWXyFgCGaAwvg9QML2Ypw 0.06540937 -0.05772118 0.2055726 0.3767172 -0.32563412 0.19826013 -0.08425475 0.11988708 -0.32784018 -0.26170996 0.25114197 -0.2722775 -0.3517639 -0.09741579 0.47549114 0.29421374 0.45759165 -0.10255503 0.14129783 0.8029516 0.1540632 -0.2111184 0.31127357 -0.585021 -0.015136957 0.5419595 -0.023565628 0.3361842 0.15798007 -0.22167276 -0.46474886 0.23555055 0.23952658 -0.31085306 0.07476591 -0.19315332 0.34411144 -0.3296582 -0.028870331 -0.12258898 -0.025131378 0.5412988 -0.28696194 -0.41826934 0.01360485 -0.47191083 -0.024784721 -0.24063323 -0.40900365 -0.102556385 -0.22129259 0.01756695 -0.161197 -0.183327 -0.27701816 0.060445487 -0.16439275 0.07364385 0.30661222 0.24423224 0.29630917 -0.017177537 -0.27790707 -0.100927465
cNz2tTTAPmdeAq6HnGeo8w -0.11706038 -0.22215143 -0.39758244 0.099295676 0.15474668 0.030026283 0.27816883 -0.25496653 -0.15615629 -0.09734594 0.5394664 0.06608327 -0.24377565 0.2618252 0.15496111 -0.0001749405 -0.0328856 0.48631755 -0.27717006 0.6860971 -0.053646225 -0.0023351673 0.28168562 -0.41891196 0.096067995 -0.2997918 0.0011424809 -0.14279212 -0.2523624 -0.061896663 -0.26714414 0.28619215 -0.5865313 -0.5212816 -0.040005945 -0.026255779 -0.007587201 -0.22801118 0.23712508 0.12948029 0.26574928 0.41767028 -0.58631665 0.23694931 0.18584244 -0.31503645 -0.21566093 0.26335403 -0.17125438 0.13486068 0.059211124 0.28356215 -0.053787775 0.039643206 0.18397626 0.11692008 -0.04484155 0.016130313 0.34130573 0.50648594 -0.27280387 0.024361026 0.49099037 0.006098753
ndzT1maiVwpz-7VFFzAb5Q -0.04487949 -0.2248058 -0.11716328 0.5259604 0.46934685 0.036462322 0.07654083 0.3742609 -0.04489677 -0.22250602 0.6333372 -0.24256948 -0.4500036 0.12636597 -0.2257738 0.6625839 -0.3175429 0.23328978 -0.59498763 0.32604355 0.049365606 0.20332539 -0.39413252 -0.1522951 0.16481383 0.040787924 -0.17167473 -0.11823504 -0.030955447 -0.16794562 -0.33335504 0.094190255 -0.37416708 -0.27673277 0.5515251 -0.211175 -0.32021677 -0.276442 0.03687301 -0.1890556 -0.2628488 0.2973139 -0.020334322 0.0726681 0.20932022 -0.13542102 -0.2111617 -0.106715046 -0.22063051 -0.1025666 0.03723459 0.030244645 0.32936746 0.55330575 0.29125312 0.34824893 -0.3294509 -0.06794166 -0.14656287 -0.007187538 -0.047616515 -0.30319473 0.27280098 0.39344388
xcmmTXhuMx2fZF2Bt69F4w 0.11099708 -0.2342186 0.2606376 0.09512529 0.28690627 0.37788635 -0.03519118 0.3904987 -0.046533916 -0.5812972 0.21731608 -0.015577386 0.28664812 -0.24414347 0.0044503775 0.4275926 0.28572816 0.039694894 0.048494887 0.8732142 0.29171383 0.47862637 0.0380945 -0.16288225 -0.10940229 0.5849635 -0.01750343 0.00773739 -0.28305098 -0.19511501 -0.0572354 -0.33060244 0.12833752 -0.70362425 -0.04231086 0.09216708 0.14760701 0.14432216 0.05735352 0.30418664 0.17565954 -0.36177036 0.33839795 0.030735 -0.04371862 0.34386545 -0.096612506 -0.0069366577 -0.26560274 -0.018764641 -0.28653198 0.17898491 -0.069748394 0.09439213 -0.03771094 0.046738632 0.11368055 -0.7849326 0.08356697 0.3962242 -0.29736453 0.13497183 6.0512466e-05 -0.04542157
j54J0Ky4ruVbN_NTJ3daFg 0.16383544 -0.24157411 0.25963798 0.5674706 -0.05198692 -0.27458733 -0.41888985 0.2536545 -0.68999714 0.13614967 0.07569989 0.2819861 0.20274404 -0.010006729 0.0898023 0.07885113 -0.23724222 0.058505468 0.014186645 0.4980269 0.27628967 0.41735455 -0.16215417 -0.011133946 0.27998176 -0.07257447 -0.57772994 -0.5509422 -0.13445273 -0.2806483 -0.2277966 -0.07877792 0.3637603 -0.20432317 -0.0746125 0.37006083 -0.024173062 0.38901925 0.07869802 -0.18286908 -0.1188026 0.085023895 -0.4855476 -0.2685522 0.35371608 -0.36215636 -0.22976433 -0.52859896 0.04306992 0.5221406 -0.41042686 -0.036185622 0.019186137 0.22258948 -0.07465199 -0.3418617 0.120552935 -0.19803758 -0.047866598 0.2520142 0.010704293 0.051709164 -0.6102432 -0.12279233
hzyvL2v97xLzLbLXcdi1uw -0.018616954 0.2368156 -0.15319085 0.1259789 0.14306544 -0.14419658 0.350801 -0.28173837 -0.3038797 -0.030370077 -0.04364479 0.04451488 -0.5670058 0.004571287 0.3062078 -0.05657963 -0.7650963 0.47087443 -0.42728528 0.5347701 0.23023102 -0.024711698 0.21006913 -0.12161367 -0.08264237 0.09103402 0.07703527 0.38765827 0.1004962 -0.034056887 -0.7769661 -0.2857327 -0.109772615 0.050737076 0.10316717 0.33986193 -0.10517403 0.10807701 -0.37799606 -0.14865373 -0.36495912 -0.0043144557 -0.31315333 -0.0312429 0.6109715 0.20690222 0.025057929 0.20357247 -0.48380354 0.4642285 -0.45236233 0.15885207 -0.0019946557 -0.04286916 0.34798068 -0.12910661 0.19997819 -0.3622941 -0.041351598 -0.048658915 -0.5152177 -0.012464774 0.21199334 -0.12923469
pSAoDrxX7Q5VRe-7gpDpOw 0.025903389 -0.06330239 0.24095035 0.40703726 -0.117347635 -0.009126556 -0.43223578 -0.1893191 -0.37856022 0.13324325 0.41361684 -0.8215303 0.35390118 0.22720239 -0.014847873 0.269203 -0.06381691 -0.6472864 -0.15383916 0.4979468 -0.059804365 -0.34651127 -0.11332842 -0.5116414 0.35108936 -0.23461866 0.65301365 -0.2074135 -0.29381502 0.002946497 -0.07566661 -0.019985888 0.045339227 -0.3906307 -0.3829717 -0.15139017 -0.14965557 0.6347837 -0.51463443 -0.024200935 0.025627209 -0.35928142 -0.2274396 -0.25748268 0.12006757 -0.09113092 -0.46468383 0.14645392 -0.09739671 0.017783303 0.005851481 0.017196512 0.12094063 0.022599038 -0.18663882 -0.24735107 -0.17204148 -0.32930127 -0.2757885 0.3498113 -0.03643921 -0.17702371 -0.36738306 -0.22036032
0r1Ow0HYAAjU7oM_2ePN6g -0.056355584 -0.7567614 -0.3935398 -0.0017287164 -0.17574733 0.07782433 -0.47065145 -0.066612765 -0.14029375 -0.41754213 -0.12537314 -0.21572578 0.03731594 -0.19381277 0.32832038 0.7318262 -0.0736872 -0.5792095 -0.2639483 0.5666413 0.029976405 0.47391585 -0.20098963 -0.15826066 0.38172185 0.59842145 0.04829287 -0.2796404 -0.3139031 0.0882404 0.0069020116 0.2383812 -0.12612371 -0.40743586 -0.101879455 0.22979033 -0.4859544 0.38139358 -0.21169537 0.07836244 0.0632218 -0.240841 0.19419874 -0.26424804 -0.24364318 -0.09192527 0.31286016 -0.03201055 0.077341534 0.05166979 -0.07698507 0.21408601 0.06353226 0.03440775 0.10892934 0.061461587 -0.45812 -0.15256575 0.082097806 0.42580658 -0.41290444 -0.055072084 -0.34633332 0.21356621
_ucDskZqK5w1QHkoA_nlRw 0.16759016 0.072186396 -0.17999077 0.38984787 0.27638078 -0.3745251 -0.3363703 0.10024752 -0.51640195 0.18656436 -0.064619265 -0.16406259 -0.19754577 0.28853932 0.2585656 -0.085362315 0.16720404 -0.05050648 0.0905717 0.12778306 0.4804174 0.20051049 0.15230757 -0.43463632 -0.09268084 -0.06656238 -0.056229584 -0.6699318 0.37226975 -0.2208527 -0.05605321 0.24726425 0.2662203 -0.3353542 -0.007006969 -0.02071202 -0.6650208 -0.014114927 -0.11106515 -0.03822498 -0.21204816 -0.017501961 -0.47406843 -0.21698761 0.07553439 -0.18848196 -0.27192834 0.19623606 0.33099857 0.5085158 0.014199121 0.12273839 0.228252 -0.23445567 -0.029683268 -0.084419414 -0.1918325 -0.6320329 0.04341781 0.39293015 -0.19789255 0.28130165 -0.45434913 -0.15728787
49sbCG7F2jvqJsfG6-N8Rw 0.60242593 -0.5378722 -0.14955802 0.23311482 0.10462608 -0.07337029 -0.14203009 0.29948458 -0.26198322 -0.717953 0.08654744 -0.25526688 0.14080752 -0.19417965 0.33702385 -0.08651941 -0.45163321 -0.20614935 0.023684554 0.3355555 0.3539447 -0.067119166 -0.08864025 -0.48656097 0.34024674 0.23070258 -0.28368467 -0.08195203 0.04296425 0.11118635 -0.15002349 -0.19477917 0.344614 -0.39285803 0.23203872 0.33701658 0.16148683 -0.053566076 0.10331493 0.078119844 0.24679923 -0.1830641 -0.11128095 -0.28080115 0.01644448 0.009137191 0.36701903 0.20388657 -0.34866092 0.044052273 -0.024680756 0.2223455 0.68045026 0.016511329 0.43361643 -0.3979219 -0.35575196 -0.35407403 0.61796933 -0.012140084 0.4588653 0.0024864855 -0.4647314 -0.25227466
CsbNmQqu9dKFrgcIItevYA 0.50107056 0.10291719 0.36773363 0.3510741 -0.50808626 -0.32797918 -0.3500575 -0.021029918 -0.42077047 -0.13351364 0.2580252 -0.30864912 -0.086525075 0.18920776 0.09794396 -0.1617071 -0.1723692 -0.27876407 -0.57384455 0.09550803 0.19253899 0.026590968 0.03875237 -0.27696794 0.27523917 -0.1425073 -0.43207735 -0.039956905 -0.09530622 -0.22506544 -0.026072381 0.31825647 0.083034486 -0.601243 -0.12803426 0.19259726 -0.042930387 -0.0417251 -0.22988638 0.020452807 -0.2423271 -0.5896587 0.00522978 -0.16201307 -0.04387416 -0.4867056 -0.28186813 -0.2087745 -0.31426302 0.65497375 -0.2310732 0.06279176 0.3889204 -0.18552646 -0.033238426 -0.07561911 0.18154404 -0.327555 -0.22971007 0.3348761 -0.1930882 -0.024572905 -0.037384994 -0.29111147
QqbZA4r5g1vCbOxOAKJgWg -0.7101477 -0.31972095 0.24631046 0.26048157 0.3993779 0.4852168 0.12311993 0.014561945 -0.06110374 0.13034081 0.19588922 -0.35869655 -0.22469927 0.032113757 0.515279 0.41641915 -0.23196635 0.028182004 -0.66112834 0.81109965 0.34116378 -0.27646366 0.5536378 -0.28788018 0.10345973 0.22826882 -0.15079513 0.1885087 -0.18455395 -0.23316692 0.2936869 -0.06817493 -0.040324062 -0.18626404 -0.16343606 0.0856304 0.25577095 0.25394982 -0.025990816 -0.25811785 0.02853497 0.13080055 -0.19256915 -0.22987424 -0.0032291764 -0.5036333 -0.19624892 -0.32758805 0.06544571 0.07836999 -0.09241578 -0.50146836 -0.0039615943 0.2371846 0.10567594 0.16661537 -0.18347669 -0.11576819 -0.06589613 0.04715536 -0.15727174 0.013886293 0.006338175 -0.028424587
aAkoJKozYZEyBx58wQ-UrQ -0.16889568 0.04512827 0.4614916 0.26777261 0.475101 -0.16957153 0.20011283 -0.12590674 -0.16313986 0.31018683 0.037500832 -0.052370258 -0.25229773 -0.0076224934 0.341865 0.223642 0.3114859 0.62873226 0.2090267 0.35538986 -0.16829498 -0.09581623 -0.045819618 -0.16366601 0.1067796 0.18751705 -0.30114797 0.09292761 -0.5676065 -0.26919332 -0.2087042 0.24510606 0.036320146 -0.28418753 0.1497877 0.28741 0.07767282 -0.075706415 -0.34639743 0.23570688 0.44512665 0.54851454 -0.20265274 0.35759458 0.34806305 0.03550388 -0.12690176 0.01331373 0.21967904 0.22587657 -0.30854633 0.58024645 0.6115267 -0.45461336 0.13112688 -0.2873406 0.27769056 -0.19723171 0.058508046 0.6624226 0.24172638 -0.3235581 -0.43727976 0.02769538
e9KXojla4OuVP7qcC5LNsg 0.021492787 -0.45928958 0.06881779 -0.25042275 0.23194283 0.075148664 -0.29337102 0.11177565 -0.46771154 -0.15463832 0.29661238 -0.12517004 -0.16421646 -0.14767928 0.60130537 0.2200481 -0.478299 0.073939584 0.20408277 0.31505042 0.07263982 0.26485905 0.25707623 -0.15679137 0.3664559 0.32766387 -0.32285997 0.21202384 0.09645118 0.09334763 -0.39019647 -0.2873177 -0.2985717 -0.6480662 0.16991732 -0.032664336 0.12687667 -0.3200008 0.33648 -0.195483 -0.25288814 0.27615893 -0.4514201 -0.066122726 0.17962943 -0.29422215 -0.10673435 -0.13246061 0.12866785 -0.32937077 0.0908878 -0.07870122 0.2882467 0.16822109 0.18199989 -0.07694593 0.13470565 -0.1010101 0.19758593 0.5220031 -0.31061387 -0.2265701 -0.09081203 0.35141224
ZNdV9ytExuxPTXSN8i2xhw 0.1622166 0.0936524 0.19601956 0.58062404 0.119777195 -0.1163791 0.19449857 0.3181035 -0.1496615 -0.39516085 0.6097438 -0.46857625 0.0032646884 -0.019546844 0.18906976 -0.32019192 -0.2468083 0.46736044 -0.5956259 0.45587975 -0.20623699 -0.10970535 -0.28981927 -0.7034556 0.10057242 -0.06478746 0.43680546 0.2981996 -0.25909874 -0.16032751 0.025513884 -0.263565 -0.54543716 -0.53093904 -0.2416304 0.29410937 -0.53035593 -0.007205428 -0.102500424 -0.13481298 -0.1329645 0.4920107 -0.09142981 0.120374486 -0.04472452 0.032248627 -0.03604011 -0.3569034 0.091888905 -0.3448476 -0.068079315 0.432184 0.05295391 0.06160822 0.6297492 0.0027751774 -0.07773042 -0.0876262 -0.137323 -0.085869 0.080660135 0.012407922 0.0957339 0.07346162
_R1jBQQieKpNGMBqmrLRyA -0.18327987 -0.271675 0.13313624 0.43359795 -0.15371858 -0.21860863 0.3664344 -0.055723205 -0.32339016 0.09276823 -0.17700584 -0.22983144 -0.5531478 0.19329198 -0.16333859 0.44304514 -0.3703477 0.46105847 -0.074789084 0.27025738 -0.3039853 0.08775177 -0.54945153 -0.6169558 -0.1538548 -0.18016791 0.39547902 0.0505448 -0.09595259 -0.48627126 -0.10098521 0.36989167 -0.1782907 -0.3279696 -0.68866587 -0.017183218 -0.040567916 0.06326681 -0.13808675 0.07135067 0.121976 -0.423053 -0.3557024 -0.11772133 0.38070303 0.15127906 0.05677045 -0.06753015 -0.011092605 0.035582762 -0.15633501 0.19432065 0.13799326 0.21684787 -0.15448916 0.64917827 0.131343 -0.2422331 0.027428813 0.15851209 0.062505305 0.10926967 -0.35539728 0.18688414
u0F9WJbECpg5fEesAx94xA 0.06146391 -0.041139476 -0.25986892 0.055557806 -0.23005784 -0.13867924 0.11603921 0.19222918 -0.09841553 -0.049830806 0.3061259 -0.25753897 -0.2773429 0.44287166 0.6858456 0.3671376 0.064586654 -0.38452378 -0.032563157 0.115495935 0.53594834 0.29299176 -0.2702444 -0.42963856 -0.0025962812 0.18985336 0.1573619 -0.26333585 0.020345638 0.22750302 -0.33225483 0.21987806 -0.23396398 -0.5180657 -0.20558794 0.7151276 -0.6048932 0.36379993 0.27274275 0.36603364 -0.039613687 -0.42492217 0.22432967 -0.008645894 -0.21867336 -0.18383646 -0.25026795 -0.19177185 -0.0053885733 -0.0734386 -0.14860836 0.15324567 0.17805319 0.13996741 -0.07823011 -0.20946041 0.5881223 -0.39972603 0.110827126 0.15992428 0.01999711 0.14208484 0.14967547 -0.14987105
F8_WdEVmUFTU1pTHBgikIg 0.34029543 -0.21774162 0.36458647 0.3596006 -0.20892487 -0.04537262 -0.7449213 0.26463833 -0.019078527 0.48626727 0.16674381 0.252143 -0.13877748 0.24951218 0.24353337 0.3420386 -0.27944237 0.7274153 -0.009926996 0.21715349 0.050948106 -0.043429352 0.13265048 -0.25732028 0.19805042 -0.19421399 -0.010837684 -0.24877417 -0.44270787 -0.44366345 -0.14934723 0.09349772 0.2983644 -0.7765224 0.24343163 0.24455279 -0.46321514 0.34050596 -0.4786715 0.009066529 -0.24004132 -0.15954103 0.06606208 0.040732075 -0.1680991 -0.2789692 -0.39868212 -0.05313246 0.4968882 -0.24097845 0.20015429 0.5052082 -0.088920444 0.007064165 0.2485581 -0.23382351 -0.5622288 -0.18934548 -0.26395255 0.2474425 0.17559181 0.3114956 -0.3104236 -0.6236062
hF1-dtY_oXfngC8h2mY4qg 0.21157464 0.0058416794 -0.09561884 0.38732797 -0.23179851 -0.1534648 -0.4336396 -0.13946275 -0.37487507 -0.0427334 0.68781674 0.0248708 0.37106252 -0.033917684 0.34575424 0.050899345 -0.567717 -0.11232476 0.14711922 0.5491403 0.12008799 0.450732 0.2333327 -0.52204615 0.0055403565 -0.2651835 -0.20604733 -0.010707999 0.24363066 -0.1633579 -0.16729213 -0.04008325 0.3158771 -0.26947805 0.13624369 0.20863916 0.13752373 0.36258745 -0.29827556 0.16422601 -0.16798596 -0.31868565 0.02635148 -0.06679969 0.13004296 -0.59455657 -0.1933671 -0.17389481 -0.3007807 0.33996564 -0.17398998 0.029339917 0.36522615 0.23095061 -0.09349184 0.28294164 -0.062155385 0.21497263 -0.2658763 0.2682136 0.6400857 -0.075170964 -0.18168375 0.037935544
1HfkEkNhI6XJXkgrCTBKpw 0.23179597 -0.14584717 -0.14962369 -0.010608785 0.17329647 -0.41602018 -0.13913684 0.14559728 -0.53273565 -0.094897345 0.008109518 -0.026179506 -0.3831587 0.19627997 0.205451 0.35500318 0.012481603 -0.06978806 -0.022667114 0.29679763 0.15792961 0.51028854 0.2950907 -0.93862474 -0.22262946 -0.09039971 0.16880831 -0.681212 0.041878514 0.096974775 0.012505716 -0.115231715 0.13004284 -0.47685474 -0.15114437 -0.112855814 -0.48858997 0.015381639 -0.44663367 0.37727478 -0.18032216 -0.29639268 0.16537341 0.31011987 0.13299634 -0.1838855 -0.28595972 0.101876296 0.59386545 0.20819095 -0.028889334 -0.1771247 0.15741476 0.14458728 -0.28436953 -0.15783173 0.023147957 -0.6707459 0.03043021 0.12370734 -0.11305543 0.26905155 -0.058145616 -0.2898788
BrORoLCE5zVY6ekUb6omNA 0.27380323 -0.1666784 -0.14778236 0.20508707 0.4715152 -0.5970646 0.045147453 -0.08162245 -0.009401337 0.16136204 -0.117743805 -0.5852757 -0.10873786 0.10542373 0.30442372 0.14953953 0.11012636 -0.5635953 -0.19388868 0.44510013 0.34080237 0.47626072 0.040650006 -0.8996062 -0.24190135 -0.1441463 -0.0066077765 -0.53305066 0.11130597 -0.20329273 -0.2746301 -0.08611261 0.18284221 0.20580262 0.22377248 0.5525741 -0.03472144 -0.29795453 -0.28586587 0.15901682 -0.15302397 -0.14425306 -0.2850218 0.15642622 0.017568415 -0.2618938 0.070727795 0.10369039 -0.050004337 0.115763046 -0.045789912 0.0827874 0.26814997 0.025369437 -0.3697518 -0.25482818 0.50574106 -0.72035116 -0.16523583 -0.17690201 -0.1691591 0.05672938 0.15136525 -0.23679489
hUCujBvgttk5jNh_uQwi2Q 0.16921583 -0.5302193 0.03416825 0.40719843 0.4867335 -0.0023180933 -0.014606246 0.35077575 -0.011001434 -0.29010633 -0.07647741 -0.0077756327 -0.5586341 -0.17499688 0.5323463 0.07243366 -0.10853429 -0.100156926 -0.04566894 0.3332613 -0.18332767 -0.05490094 0.27049503 -0.54025173 0.30483723 0.23164597 0.059277758 0.22368191 -0.36178833 0.075320505 0.16296245 -0.14871392 -0.15581702 -0.12483095 0.27920398 0.0879576 -0.12016706 0.6972186 -0.016801815 0.40122962 0.12813926 -0.13248885 -0.28786632 0.10148418 0.336512 0.14253823 -0.5920482 -0.6071739 0.041034825 -0.03466702 -0.027596075 -0.33233476 -0.267329 0.045575272 0.4504767 -0.47129783 0.21271051 0.12612073 0.04006304 0.71241194 -0.19745307 -0.16242293 -0.41542742 -0.14940357
qQvHYQ1uocuEnFcUdhxV_g 0.119286895 0.3172015 -0.52863723 0.11859073 0.45628956 -0.31602708 0.54167205 0.46026093 0.19833685 -0.075627804 0.3918175 0.38467613 0.061348382 0.08263191 0.005099115 0.4382799 0.11771362 0.26939583 -0.3119748 0.18979087 0.6325677 -0.4236337 -0.015783075 -0.77324545 0.11046461 0.08074648 -0.2804724 0.03017265 0.10997846 -0.19851035 -0.2032784 0.19204189 -0.5344592 -0.3238577 0.086609624 0.1002885 -0.27552006 -0.50254196 -0.26588947 -0.07698957 0.023849767 -0.06294886 0.06812653 -0.0040788865 0.6910478 0.101663455 -0.44722986 0.12818518 -0.19835632 0.0010798458 -0.09189245 0.30978146 0.0529086 -0.42739797 0.2653673 0.38413557 0.00773821 0.06404373 0.12667637 0.60202515 -0.10631768 -0.16349785 -0.049278572 -0.10426181
S8VRQCBrbZI04zjCOc1RAA -0.12584172 -0.2647873 -0.23295945 -0.1041536 0.22414257 0.37744173 0.10890592 -0.19268334 -0.17504954 -0.21203013 -0.08549517 -0.19593348 0.049390934 -0.07982569 0.012750439 0.7096891 0.05937793 -0.23318578 0.14157453 0.05260408 0.58340985 0.5008697 0.009773364 -0.29097444 0.3569121 0.41027406 -0.3104988 -0.02693406 -0.044859834 -0.350606 0.12125211 -0.268124 0.11665718 -0.77335924 -0.019922674 -0.17386746 0.017252177 0.024187062 0.03825528 -0.011649012 0.06342324 0.01937875 -0.4741945 -0.04518274 -0.23889215 -0.09882826 -0.039508842 -0.013424239 0.27100652 -0.21665147 -0.121036254 0.12652172 0.21064465 0.04648358 0.22042526 -0.43410683 -0.06820586 -0.4808165 0.45859668 0.352749 -0.67078316 0.30449137 -0.45646873 0.06289659
7l-CCyNnvT86GMR5EtYjog 0.24395613 0.0043485854 0.19592242 -0.095300116 0.2749572 -0.44004056 0.42705813 0.33785993 -0.6192092 -0.110209145 0.13966101 -0.26910907 -0.028885126 0.25072545 0.20428653 0.19597784 0.048370942 0.04956939 -0.47565302 0.69811827 0.038400322 0.046960328 0.009689994 0.32091257 -0.11069873 0.12537895 0.51287633 -0.37652853 -0.017121859 -0.32810888 -0.14059713 0.25809768 0.17639972 -0.778311 0.098876536 -0.07918181 0.13269858 0.53578925 -0.10327153 0.7246522 0.3762978 -0.31704473 -0.10736102 -0.109978564 0.052892223 -0.6528958 0.32184482 -0.1921604 -0.4252988 0.3250204 0.09413482 -0.20986423 0.2050062 0.12497507 -0.32122657 -0.38702983 -0.016595453 -0.57074314 0.29938692 -0.06968155 -0.27018076 -0.18634574 0.118533194 0.1437112
vXhlnFw9k5ch1GVFOlddgQ -0.08912642 -0.34112892 0.10581807 0.02268671 0.104536675 -0.025773045 0.04622375 -0.25644666 -0.28980252 0.07689549 -0.067290425 -0.6107204 0.05137318 0.16186792 0.5168179 -0.017795831 -0.0779123 0.17388104 -0.029239355 0.085469425 0.2730591 -0.044307712 -0.4175777 -0.6852384 -0.2475678 -0.49915215 0.4594999 0.44472617 -0.30189908 0.28003696 -0.35109013 0.027157996 -0.44291967 -0.6915447 -0.2453691 0.2702569 -0.2367053 0.06831589 -0.37648603 0.46688092 0.2393168 -0.34440613 -0.34751758 -0.14669685 -0.3721683 0.10993682 0.04469642 -0.16172539 -0.16513102 -0.08828936 -0.037145276 -0.11052772 0.23828599 0.29368898 -0.27373445 -0.45279694 -0.01890586 -0.2766727 -0.28715208 0.23683584 -0.28100497 0.30215672 -0.17267177 -0.21665834
Hz1F5uruPe1kCsf5PIA6Sg 0.00076873554 -0.08551089 -0.19078568 0.310901 -0.39742 0.02806471 0.04768695 0.25716007 0.14057116 -0.13833441 0.3294313 -0.19766065 -0.52585196 -0.0057771197 0.37038812 0.12250662 -0.20876129 -0.14987104 0.2422826 0.02061749 0.095818184 0.2304704 0.3459197 -0.71616113 -0.13098474 0.45480216 -0.8475721 0.12790601 0.39554477 0.5088306 0.10467298 0.08107487 -0.035898734 -0.57628936 -0.1863988 0.21921624 -0.21068475 -0.14130728 0.172881 -0.056018673 -0.19957471 0.104698196 -0.56875783 0.35111913 0.68208486 -0.31558114 0.0070077074 -0.18881935 0.15601356 -0.27350435 -0.15483315 0.2966352 0.1961057 0.044654027 0.07680032 0.04195912 -0.18385915 0.089866795 0.074164554 0.19757786 -0.24674153 -0.1393632 -0.1821928 0.13011
O40nlfiMpWAKgMx7bH9h6Q -0.1298433 -0.57997656 -0.11969835 0.7062224 -0.37799752 -0.013673042 -0.6135418 0.49626425 -0.21437542 -0.016916487 -0.089750536 0.23545593 0.19028926 0.054099973 -0.16132058 0.16721389 0.04355887 -0.13532127 -0.3841422 0.106692515 0.02380901 -0.039107375 0.3939491 -0.37097764 0.54131955 0.07968962 0.13991307 -0.28711116 0.1355343 -0.22617193 -0.2551355 -0.13163444 0.68259513 -0.48514694 0.2948103 0.37623373 -0.19182208 -0.075953774 -0.29179645 -0.26729986 -0.39424497 0.007260377 -0.3307077 -0.43344438 0.46884984 -0.25927088 -0.017334394 -0.20414615 -0.03618594 0.48749152 0.011318121 0.30017713 -0.13831434 0.2248258 -0.29448012 -0.17159514 0.22265838 -0.20972554 0.030650474 0.7027934 -0.3810089 0.124182895 -0.455981 -0.45642814
DiSARzaWBeNyB4oU047TcA 0.42600265 0.044280168 -0.3982629 -0.21373008 0.1214132 -0.1832552 0.29315305 0.03743261 -0.03133075 -0.062479094 0.17496838 -0.41484085 -0.19297664 -0.015634999 0.33661234 0.26213092 0.022854252 0.08424668 0.04051676 0.72246546 0.41501963 0.07554746 0.24630128 -0.95425737 0.13556346 0.11953235 0.17171277 -0.011791686 -0.055316404 -0.36596814 0.36126918 0.25663915 -0.41075772 -0.45434362 -0.64107317 0.036246713 0.058914796 -0.079685256 -0.37089795 0.3622106 -0.0030231997 0.29923078 -0.0747173 -0.21703044 0.3011471 -0.12672594 -0.267059 0.21819957 -0.047838338 -0.21855658 -0.25425014 -0.7052668 0.0011920851 -0.3437487 -0.1412398 0.010142593 0.17155431 -0.052274752 -0.11043284 0.010995987 0.099617 0.010683822 -0.1964945 -0.026564412
q0n4I-zqiI47xispOqc1lA 0.26524183 0.4193287 -0.48755592 -0.12332094 -0.008927532 -0.024529735 -0.4883843 0.43432096 -0.09971112 -0.18510899 0.13803364 -0.01899179 0.018123658 0.25494954 0.09382925 0.039538946 -0.5530163 0.31792533 0.3296812 0.56468123 0.4358028 0.020063017 0.16830756 -0.8324882 0.26570484 0.03748322 -0.006653425 0.20455214 0.09014997 -0.25257027 -0.050493866 0.07758904 0.16749813 -0.15301193 0.30001003 0.12075496 -0.12159887 0.11056285 -0.0028165493 0.042182248 0.4521914 -0.345541 0.035378166 -0.4370703 -0.061698806 -0.10448106 -0.002361238 -0.15753889 -0.038268123 0.42444274 -0.40404156 -0.12722887 -0.024566026 0.09492186 -0.113606885 -0.42952666 0.18144926 -0.54279816 0.25938258 0.1901004 -0.062266964 -0.036718372 -0.5560025 -0.5125472
mRZCTkOgDc28VWYMvo3nVQ 0.2807721 0.017694961 0.1741777 0.033128787 0.13082777 -0.052022554 0.38030523 -0.026714813 -0.09102096 0.13852406 0.25681686 0.34845033 0.08489983 -0.26888826 -0.22700232 0.71828514 -0.3930849 0.25276315 -0.39190087 0.023827923 0.06552306 0.13197826 -0.25652984 -0.54400444 -0.04900783 0.26717755 -0.21006417 0.08187474 -0.32245123 0.28707984 -0.49743477 0.10231644 -0.11001253 -0.17357026 0.38469806 -0.55057615 -0.23245436 0.26857036 0.071166255 0.20698549 0.057503007 0.32495332 -0.39745438 -0.2674485 0.44281995 -0.30990872 -0.21987963 -0.23108755 -0.2685454 -0.024157796 -0.23675853 0.34347707 0.39420453 -0.28255108 0.116223544 -0.15769562 0.38184834 0.13022634 -0.35865998 0.69982284 -0.13877942 0.19430065 0.2170964 -0.12047889
gHngt6zpP683GKe1i23LUg -0.11766416 -0.47858778 0.24205756 0.23249365 -0.23991945 -0.25921524 -0.080671154 -0.4309494 -0.3593697 0.08678716 -0.34815007 -0.14370683 -0.37851346 -0.5547544 -0.13524266 0.23902158 -0.069332674 -0.21876164 0.07219414 0.29569957 0.017961306 0.14098993 -0.27994087 -0.49666116 -0.06895965 0.17171243 0.07002458 -0.15129007 -0.17891255 0.093524106 -0.17472337 0.2192164 -0.012632712 -0.56915236 -0.053207666 -0.004849206 -0.42079046 0.10854748 0.052171927 0.4335834 -0.21640155 -0.16175833 0.36598986 -0.31056073 0.19897366 -0.07560916 -0.4510553 -0.13449183 -0.18937594 0.024260106 -0.35095096 0.3207181 -0.01118408 0.48525813 0.103489645 0.26879174 -0.7397022 -0.5723325 0.5494039 0.16465619 0.13943225 0.24397878 -0.1417394 0.6107692
SuMi4hxed5qk-M8IklFg8Q -0.10765919 -0.124831 -0.19239171 0.1898768 0.11093566 0.045589227 -0.20852853 0.2989351 -0.36609542 0.19481125 -0.050610144 -0.47422457 0.014405241 0.45567983 -0.056826957 -0.014123177 -0.16193211 -0.23081185 -0.035519287 0.43595794 -0.11994214 -0.5120431 0.31418905 -0.25083822 -0.4531692 0.4245238 -0.35306904 -0.36606884 -0.09017574 -0.06598587 0.16331321 0.34025237 -0.4158313 -0.21527159 0.15548292 0.21031728 -0.043731157 -0.38372728 0.030938722 0.99483746 -0.23074816 -0.3784395 -0.32461074 -0.36702827 0.09651301 -0.46985427 -0.4366614 0.09268328 0.0020242601 0.4002626 0.031663273 -0.018615145 0.5129314 0.1421531 0.06958795 -0.056644075 -0.4195681 -0.5110137 0.1039716 -0.17348284 0.036034916 -0.099937156 -0.06689645 -0.6970328
nlVjdQq9FzdQ3bfy-8y80g -0.26372746 -0.12856437 0.22188908 0.39000228 0.00977049 0.24948749 0.73104036 -0.24276564 -0.38465828 -0.0629848 0.084857 -0.44036677 0.23022953 0.47540626 -0.11624752 0.3310957 -0.30936205 -0.3757226 -0.13498455 0.18395673 -0.13051644 0.3403728 0.15167634 -0.071847506 0.25793502 0.26163396 -0.08804304 0.27939194 -0.19415912 -0.50319463 -0.18496813 -0.03910066 -0.23275791 -0.46783724 0.43597442 0.04124392 -0.2691861 -0.0005054718 -0.2739131 0.18643947 -0.042700466 0.32023212 0.09234363 -0.14821284 0.5450855 0.5428775 -0.12594885 -0.051923178 0.1883239 0.53460073 -0.38993686 -0.12078691 0.38518792 0.06815029 0.16085084 -0.07146197 -0.45823383 0.11493979 -0.11209639 0.29359373 -0.40306404 0.54693705 0.0125337485 -0.051607445
vxFrGfeQCtc5AzPKkMHHgA 0.07789234 0.33901578 -0.075792074 0.19591746 0.43326446 -0.15184653 0.028289123 -0.21307085 -0.25550017 0.06221387 0.28116712 0.5361036 0.15590787 0.1236137 -0.1574298 0.34550565 -0.4685888 0.30202708 -0.52138436 0.2547051 0.008540936 0.5753644 -0.34909827 -0.5117613 0.02578405 0.27324623 -0.55482507 0.06252207 0.13193633 -0.21410918 0.06661786 0.27634588 -0.24866922 -0.062083505 -0.052825212 0.48804712 -0.2641274 0.03545161 -0.046526186 0.12605515 -0.023711342 0.2016322 -0.32603213 -0.39011347 0.4987329 -0.030110894 0.3838442 0.24472114 -0.10856179 0.05225165 -0.33491662 0.15610509 -0.08493944 -0.065333754 0.30880854 0.34073654 0.13195154 0.02271657 0.09138054 0.4374676 0.029166956 0.045621987 -0.2932481 0.062395677
QlSpPzc4Oy05ic-PsoYH4g 0.05743221 -0.10126743 -0.10389299 -0.09661029 0.25863382 -0.2172875 -0.42646348 -0.18807396 -0.59667116 0.117344916 0.08284586 0.314479 -0.18196149 0.38981265 0.6624 0.4480153 -0.007645197 0.041493826 0.15667926 0.18219385 -0.03665396 0.42273006 0.3919181 -0.6027753 -0.3340587 -0.12233763 0.10492141 -0.08852765 -0.041916344 -0.035716474 -0.3240142 -0.18780714 -0.07291249 -0.46599624 0.13985777 0.13786004 -0.13162948 0.033633426 -0.52204126 0.23671335 0.19626619 -0.39859632 0.07709074 0.49754098 0.0055769 -0.10698536 -0.29859793 0.06079963 0.46699953 -0.04024706 0.12821491 0.06510237 0.38786855 0.25025666 -0.44747296 -0.39062807 0.19051376 -0.5465952 -0.11231344 0.19596119 -0.09246617 0.42189202 -0.1909937 -0.22571947
X2X3n0PutSNonQQj2cjsCw -0.10264222 -0.021219619 -0.011324977 0.0673349 -0.27885878 0.057214253 0.3250862 -0.08096729 0.05841233 0.2142273 -0.011704106 -0.32164204 -0.61392605 -0.14474304 0.2217492 0.9481837 -0.19101779 -0.067644976 0.044279393 -0.13738458 0.13071708 -0.24180174 -0.2023521 -0.6828284 0.34618795 0.02787829 -0.12282124 -0.10553315 0.14115232 -0.321358 -0.341038 -0.009469693 -0.4326347 -0.06434373 -0.19967724 0.6371313 -0.20306396 -0.30449295 0.18549693 0.2559516 -0.14962624 0.013308215 -0.57538843 0.47906998 0.20710808 -0.020223636 0.45307806 -0.40772387 0.21965557 0.17021845 -0.21610604 0.03024598 0.07493554 0.22136742 0.10443158 -0.184464 0.18812126 -0.32119244 -0.2332048 0.5627237 -0.09781839 -0.17836012 -0.14455825 -0.44433302
bdNyoXY4yJ99derJRqhP3Q 0.39418155 -0.21693641 -0.016084846 -0.21196645 0.09418625 -0.5884285 0.046414312 -0.39862788 -0.38133186 -0.66948026 0.11617209 0.06715513 -0.31313106 -0.1746971 0.08657138 -0.37592626 0.30953306 -0.28975347 -0.10566603 0.57804906 -0.5777312 0.20591415 -0.17863867 -0.49548197 0.26028642 0.22091082 -0.08779579 0.38509357 -0.12331895 0.062178314 0.40493882 0.13224114 0.1398919 -0.37221566 -0.20739119 0.18182276 -0.12165097 0.04610244 -0.21915329 0.45495656 -0.011366745 0.095209934 -0.20255044 -0.6103633 0.42779067 0.062049057 -0.5220011 0.014652385 0.0508835 0.1914184 0.21506721 0.25671178 0.3701402 -0.11727506 -0.28211132 -0.030524818 0.18556187 -0.5412046 -0.020907218 0.2139035 -0.2037978 -0.35934013 -0.21715456 -0.24395722
